%YAML:1.0
my_svm: !!opencv-ml-svm
   svm_type: C_SVC
   kernel: { type:RBF, gamma:5.0625000000000009e-01 }
   C: 6.2500000000000000e+01
   term_criteria: { epsilon:2.2204460492503131e-16, iterations:100 }
   var_all: 10
   var_count: 10
   class_count: 17
   class_labels: !!opencv-matrix
      rows: 1
      cols: 17
      dt: i
      data: [ 1, 2, 3, 4, 5, 6, 7, 8, 9, 10, 11, 12, 13, 14, 15, 16, 17 ]
   sv_total: 116
   support_vectors:
      - [ 4.22856897e-01, 7.04761446e-02, 3.05396646e-01, 7.04761505e-01,
          4.46348935e-01, 1.64444342e-01, 0., 0., 0., 0. ]
      - [ 1.44552842e-01, 6.19512163e-02, 6.40162587e-01, 4.95609730e-01,
          4.13008094e-01, 0., 1.85853645e-01, 2.06504047e-01,
          2.68455267e-01, 0. ]
      - [ 1.64859936e-01, 0., 9.74172354e-01, 7.49363303e-02,
          1.34885401e-01, 0., 0., 0., 0., 0. ]
      - [ 0., 3.00760388e-01, 6.01520762e-02, 1.50380190e-02,
          6.01520777e-01, 7.06786871e-01, 0., 0., 2.10532263e-01, 0. ]
      - [ 4.25543875e-01, 0., 3.92809749e-01, 7.52885342e-01,
          3.10974360e-01, 0., 0., 0., 3.27341445e-02, 0. ]
      - [ 2.74742544e-01, 0., 6.49391532e-01, 2.49765962e-01,
          6.24414921e-01, 0., 0., 2.24789366e-01, 0., 0. ]
      - [ 5.49855471e-01, 0., 2.97219157e-02, 8.17352653e-01,
          1.63470536e-01, 4.45828736e-02, 0., 0., 0., 0. ]
      - [ 2.81678408e-01, 0., 3.46681118e-01, 1.73340559e-01,
          8.23367655e-01, 2.16675699e-02, 3.03345978e-01, 0., 0., 0. ]
      - [ 3.71129602e-01, 0., 3.18111092e-01, 0., 4.50657368e-01,
          1.85564801e-01, 1.06037028e-01, 0., 7.15749919e-01, 0. ]
      - [ 0., 0., 2.78831601e-01, 2.78831601e-01, 7.80728519e-01, 0., 0.,
          4.08953011e-01, 2.60242820e-01, 0. ]
      - [ 6.93005145e-01, 0., 2.31001705e-01, 6.00604475e-01,
          1.61701202e-01, 0., 0., 1.61701202e-01, 2.31001705e-01, 0. ]
      - [ 7.99867749e-01, 1.81788132e-02, 9.08940658e-02, 3.63576263e-02,
          0., 5.81722021e-01, 0., 1.09072879e-01, 0., 0. ]
      - [ 0., 1.14122801e-01, 4.27960493e-02, 0., 9.41513121e-01, 0., 0.,
          1.99714899e-01, 2.42510945e-01, 0. ]
      - [ 7.30635047e-01, 0., 3.95760655e-01, 5.17533183e-01, 0., 0., 0.,
          1.82658762e-01, 9.13293809e-02, 0. ]
      - [ 4.48461026e-02, 0., 7.02588975e-01, 2.98974030e-02,
          2.98974030e-02, 0., 6.42794192e-01, 2.98974037e-01, 0., 0. ]
      - [ 5.82592934e-02, 7.71935642e-01, 2.91296467e-02, 0., 0., 0.,
          6.26287401e-01, 0., 0., 8.73889402e-02 ]
      - [ 0., 0., 1.76473632e-02, 3.17652524e-01, 1.23531543e-01,
          3.52947265e-02, 8.47073436e-01, 4.05889362e-01, 0., 0. ]
      - [ 8.51508379e-02, 0., 8.15015197e-01, 3.64932157e-02,
          1.21644055e-02, 0., 5.71727037e-01, 1.21644055e-02, 0., 0. ]
      - [ 8.12593475e-02, 0., 4.06296737e-02, 1.35432249e-02, 0.,
          9.61568952e-01, 1.89605147e-01, 0., 0., 1.76061928e-01 ]
      - [ 3.81246433e-02, 4.57495719e-01, 5.71869649e-02, 1.90623216e-02,
          7.62492865e-02, 0., 8.57804477e-01, 2.09685534e-01, 0., 0. ]
      - [ 6.05350733e-02, 0., 1.21070147e-01, 1.81605220e-01,
          2.01783571e-02, 0., 8.47491026e-01, 4.64102209e-01,
          1.21070147e-01, 0. ]
      - [ 4.84145314e-01, 7.44838938e-02, 2.97935575e-01, 8.19322824e-01,
          0., 0., 0., 0., 0., 0. ]
      - [ 9.82560694e-01, 7.44364187e-02, 1.33985549e-01, 7.44364187e-02,
          0., 0., 0., 0., 7.44364187e-02, 0. ]
      - [ 7.47368991e-01, 1.41013013e-02, 6.34558558e-01, 0.,
          1.83316916e-01, 0., 0., 0., 7.05065057e-02, 0. ]
      - [ 1.32311195e-01, 0., 8.69473577e-01, 0., 4.72539991e-01, 0., 0.,
          0., 5.67047969e-02, 0. ]
      - [ 6.03999645e-02, 1.61066577e-01, 2.01333221e-02, 0.,
          7.44932890e-01, 0., 0., 0., 6.44266307e-01, 0. ]
      - [ 9.06700850e-01, 1.92915071e-02, 2.31498092e-01, 0.,
          3.47247124e-01, 0., 0., 0., 5.78745231e-02, 0. ]
      - [ 3.91304344e-01, 6.52173907e-02, 4.56521749e-01, 5.65217376e-01,
          3.69565219e-01, 4.13043499e-01, 8.69565234e-02, 0., 0., 0. ]
      - [ 1.87317163e-01, 0., 1.87317163e-01, 0., 4.68292892e-01, 0., 0.,
          8.42927217e-01, 0., 0. ]
      - [ 4.83580157e-02, 0., 7.25370198e-02, 0., 1.81342557e-01, 0., 0.,
          9.79249835e-01, 2.41790079e-02, 0. ]
      - [ 1.32290870e-02, 0., 4.23330784e-01, 0., 7.93745220e-01, 0., 0.,
          4.36559856e-01, 0., 0. ]
      - [ 0., 1.91883236e-01, 5.90409935e-02, 0., 8.41334164e-01, 0., 0.,
          5.01848459e-01, 0., 0. ]
      - [ 2.84355551e-01, 0., 3.45288903e-01, 5.68711102e-01,
          5.07777810e-01, 0., 0., 4.67155576e-01, 2.03111116e-02, 0. ]
      - [ 3.08680199e-02, 1.54340103e-01, 9.26040560e-02, 0.,
          6.63662434e-01, 0., 0., 7.25398481e-01, 0., 0. ]
      - [ 2.26013154e-01, 5.65032884e-02, 5.08529603e-01, 0.,
          7.91046023e-01, 0., 0., 3.76688577e-02, 2.44847581e-01, 0. ]
      - [ 0., 0., 5.35403252e-01, 0., 5.90316355e-01, 0., 0.,
          6.04044676e-01, 0., 0. ]
      - [ 1.68589070e-01, 0., 9.51324046e-01, 1.20420763e-02,
          1.08378686e-01, 0., 0., 2.28799447e-01, 4.81683053e-02, 0. ]
      - [ 5.81486166e-01, 3.01511347e-01, 7.32241869e-01, 6.46095723e-02,
          2.15365253e-02, 0., 0., 1.50755674e-01, 8.61461014e-02, 0. ]
      - [ 1.90935671e-01, 1.90935675e-02, 6.68274879e-01, 0.,
          5.53713441e-01, 0., 0., 4.58245635e-01, 0., 0. ]
      - [ 1.90140173e-01, 0., 7.60560691e-01, 3.80280353e-02,
          4.18308377e-01, 0., 0., 3.23238313e-01, 3.23238313e-01, 0. ]
      - [ 1.55286238e-01, 0., 1.55286239e-02, 9.16188836e-01,
          9.31717455e-02, 0., 0., 3.57158363e-01, 0., 0. ]
      - [ 2.67972499e-01, 3.34965624e-02, 6.19686425e-01, 0., 0., 0., 0.,
          7.36924350e-01, 0., 0. ]
      - [ 1.28141958e-02, 0., 0., 0., 5.12567818e-01, 0., 0.,
          8.58551145e-01, 0., 0. ]
      - [ 0., 1.62671525e-02, 0., 0., 9.27227676e-01, 0., 0.,
          3.74144495e-01, 0., 0. ]
      - [ 1.46238841e-02, 1.46238841e-02, 1.60862729e-01, 0.,
          7.60441959e-01, 0., 0., 6.28827035e-01, 0., 0. ]
      - [ 4.82617095e-02, 1.60872359e-02, 1.12610653e-01, 0.,
          9.33059692e-01, 0., 0., 3.37831944e-01, 0., 0. ]
      - [ 7.49758005e-01, 0., 1.36319637e-01, 0., 0., 0., 0.,
          6.47518277e-01, 0., 0. ]
      - [ 1.84742227e-01, 5.54226696e-01, 2.77113348e-01, 3.69484454e-01,
          4.98804033e-01, 0., 0., 4.43381369e-01, 0., 0. ]
      - [ 1.67270064e-01, 0., 2.41612315e-01, 7.43422508e-02, 0., 0.,
          8.92107010e-01, 2.78783441e-01, 1.85855627e-01, 0. ]
      - [ 4.79382098e-01, 0., 7.76142418e-01, 0., 2.28277184e-02, 0.,
          3.88071209e-01, 9.13108736e-02, 9.13108736e-02, 0. ]
      - [ 0., 3.17700543e-02, 7.94251338e-02, 4.92435843e-01, 0.,
          3.17700543e-02, 5.87746024e-01, 6.35401070e-01, 0., 0. ]
      - [ 1.72345489e-01, 7.65979961e-02, 5.74484989e-02, 0., 0., 0.,
          6.89381957e-01, 6.51082993e-01, 2.48943493e-01, 0. ]
      - [ 2.24938497e-01, 0., 9.37243700e-02, 0., 0., 0., 7.31050134e-01,
          6.37325764e-01, 0., 0. ]
      - [ 1.06721699e-01, 7.68396199e-01, 2.56132066e-01, 0., 0., 0.,
          5.76297164e-01, 2.13443395e-02, 0., 0. ]
      - [ 0., 5.89375734e-01, 1.68393061e-01, 2.94687867e-01, 0., 0.,
          4.63080913e-01, 5.68326592e-01, 0., 0. ]
      - [ 8.29809189e-01, 0., 6.91507682e-02, 5.18630743e-02,
          2.42027685e-01, 0., 4.32192296e-01, 2.42027685e-01, 0., 0. ]
      - [ 0., 0., 2.94262618e-01, 4.90437716e-01, 2.45218854e-02, 0., 0.,
          1.47131309e-01, 2.69740731e-01, 7.60178447e-01 ]
      - [ 0., 0., 7.70514160e-02, 2.69679964e-01, 0., 3.65994215e-01, 0.,
          4.04519945e-01, 0., 7.89777040e-01 ]
      - [ 9.60828066e-02, 0., 8.64745259e-01, 0., 5.76496869e-02,
          1.15299374e-01, 0., 1.15299374e-01, 1.92165617e-02,
          4.61197495e-01 ]
      - [ 5.59888005e-01, 0., 3.59928012e-01, 1.59968004e-01,
          3.99920009e-02, 0., 9.99800041e-02, 0., 7.19856024e-01,
          3.99920009e-02 ]
      - [ 2.79617738e-02, 4.75350142e-01, 1.95732415e-01, 2.23694190e-01,
          3.63503069e-01, 2.51655966e-01, 2.79617738e-02, 0.,
          6.99044347e-01, 0. ]
      - [ 1.65680125e-02, 0., 8.11832607e-01, 3.31360251e-02, 0.,
          1.32544100e-01, 6.62720501e-02, 1.65680125e-02, 0.,
          5.63312411e-01 ]
      - [ 0., 0., 3.57599258e-02, 8.34398270e-02, 0., 0., 1.90719604e-01,
          9.77437973e-01, 0., 0. ]
      - [ 2.97511332e-02, 8.92533958e-02, 9.91704404e-01, 0., 0., 0.,
          4.95852195e-02, 1.98340882e-02, 6.94193095e-02, 0. ]
      - [ 0., 0., 1.47311300e-01, 0., 0., 0., 9.89090204e-01, 0., 0., 0. ]
      - [ 0., 6.78453520e-02, 1.86574712e-01, 7.97182858e-01, 0.,
          8.48066881e-02, 5.42762816e-01, 0., 1.52652040e-01, 0. ]
      - [ 0., 8.58143270e-01, 4.37484801e-01, 1.00958034e-01, 0., 0.,
          1.17784373e-01, 2.01916069e-01, 1.68263391e-02, 8.41316953e-02 ]
      - [ 0., 8.34385455e-01, 3.27209979e-02, 4.41733479e-01, 0., 0.,
          3.10849488e-01, 6.54419959e-02, 8.18024948e-02, 0. ]
      - [ 0., 0., 1.36260301e-01, 3.40650752e-02, 0., 0., 1.87357917e-01,
          9.70854640e-01, 5.10976128e-02, 0. ]
      - [ 1.19736865e-01, 5.38815916e-01, 3.89144808e-01, 7.48355389e-02,
          0., 0., 1.49671081e-02, 7.33388305e-01, 1.49671081e-02, 0. ]
      - [ 0., 0., 2.36392334e-01, 0., 0., 0., 1.31329075e-02,
          2.23259419e-01, 9.45569336e-01, 0. ]
      - [ 1.36335474e-02, 7.36211538e-01, 9.54348296e-02, 6.40776753e-01,
          0., 0., 1.90869659e-01, 4.09006402e-02, 0., 0. ]
      - [ 0., 0., 0., 9.95513380e-01, 0., 9.23672244e-02, 0.,
          2.05260497e-02, 0., 0. ]
      - [ 0., 0., 0., 9.99297649e-02, 0., 0., 9.86806452e-01,
          1.24912202e-01, 0., 2.49824412e-02 ]
      - [ 4.28647995e-02, 3.21485996e-02, 5.35809994e-02, 0., 0., 0.,
          3.21485996e-02, 9.96606588e-01, 0., 0. ]
      - [ 0., 0., 1.29804472e-02, 0., 0., 0., 9.99494433e-01,
          1.29804472e-02, 2.59608943e-02, 0. ]
      - [ 0., 0., 0., 8.56455982e-01, 0., 0., 0., 0., 0., 5.16220033e-01 ]
      - [ 0., 5.14835060e-01, 2.26527438e-01, 5.97208679e-01, 0.,
          6.17802069e-02, 2.05934029e-02, 3.91274661e-01, 0.,
          4.11868066e-01 ]
      - [ 3.61255743e-02, 0., 1.44502297e-01, 9.03139338e-02, 0.,
          2.52879024e-01, 3.25130165e-01, 6.50260329e-01, 0.,
          6.14134789e-01 ]
      - [ 5.37000075e-02, 0., 1.96900040e-01, 1.25300020e-01, 0.,
          1.61100030e-01, 2.50600040e-01, 6.62300110e-01, 0.,
          6.44400120e-01 ]
      - [ 0., 0., 5.33883512e-01, 0., 0., 1.24158952e-02, 0.,
          3.72476876e-02, 2.48317905e-02, 8.44280899e-01 ]
      - [ 0., 4.84477878e-01, 8.07463154e-02, 7.46903419e-01, 0.,
          6.05597347e-02, 0., 0., 0., 4.44104731e-01 ]
      - [ 0., 0., 2.43254617e-01, 2.43254617e-01, 0., 0., 1.28781855e-01,
          0., 9.30091202e-01, 0. ]
      - [ 0., 0., 6.27593100e-02, 3.13796550e-01, 2.09197700e-02, 0., 0.,
          8.15871000e-01, 0., 4.81154710e-01 ]
      - [ 0., 2.64422387e-01, 2.82050550e-01, 1.05768956e-01, 0., 0., 0.,
          0., 7.93267190e-01, 4.58332151e-01 ]
      - [ 0., 3.01854555e-02, 0., 9.05563682e-02, 0., 7.09358215e-01,
          6.03709109e-02, 0., 4.52781841e-02, 6.94265485e-01 ]
      - [ 0., 0., 0., 9.11185145e-02, 0., 7.59320930e-02, 8.95998716e-01,
          0., 1.97423443e-01, 3.79660457e-01 ]
      - [ 0., 2.32649028e-01, 9.15086150e-01, 1.86119229e-01, 0., 0.,
          1.39589414e-01, 1.55099351e-02, 1.86119229e-01, 1.39589414e-01 ]
      - [ 0., 4.64063793e-01, 2.14183286e-01, 3.56972143e-02, 0.,
          4.46215183e-01, 2.32031897e-01, 0., 6.96095705e-01, 0. ]
      - [ 0., 0., 0., 6.21503070e-02, 0., 6.21503115e-01, 3.93618613e-01,
          6.62936628e-01, 0., 1.24300614e-01 ]
      - [ 0., 0., 0., 2.00320762e-02, 0., 2.20352843e-01, 3.40545297e-01,
          8.21315110e-01, 0., 4.00641531e-01 ]
      - [ 2.59481549e-01, 0., 3.19361925e-01, 1.99601203e-01, 0., 0., 0.,
          8.78245294e-01, 1.39720842e-01, 0. ]
      - [ 0., 0., 3.80555652e-02, 1.90277826e-02, 0., 3.80555660e-01,
          4.94722337e-01, 7.80139089e-01, 0., 0. ]
      - [ 0., 1.54894553e-02, 0., 2.32341826e-01, 0., 8.05451691e-01,
          4.64683659e-02, 5.42130947e-01, 0., 3.09789106e-02 ]
      - [ 0., 0., 0., 5.76089263e-01, 0., 0., 9.34198797e-02,
          8.09638917e-01, 0., 6.22799173e-02 ]
      - [ 0., 0., 0., 7.21746027e-01, 0., 3.69674802e-01, 0.,
          7.04142451e-02, 0., 5.80917537e-01 ]
      - [ 0., 0., 0., 1.31635936e-02, 0., 0., 3.55417013e-01, 0.,
          9.34615135e-01, 0. ]
      - [ 1.25858374e-02, 0., 0., 2.51716748e-02, 0., 7.55150259e-01, 0.,
          2.51716748e-02, 6.54463530e-01, 0. ]
      - [ 0., 1.94410056e-01, 1.62008390e-01, 4.86025140e-02, 0., 0., 0.,
          5.50828516e-01, 7.93841064e-01, 0. ]
      - [ 0., 0., 0., 9.06954765e-01, 0., 0., 0., 3.35909165e-02,
          4.19886470e-01, 0. ]
      - [ 0., 0., 1.29510388e-01, 0., 0., 0., 0., 4.94494230e-01,
          8.59478056e-01, 0. ]
      - [ 3.79547328e-01, 0., 4.18810844e-01, 2.61756778e-02, 0., 0., 0.,
          8.24533820e-01, 0., 0. ]
      - [ 0., 1.89831592e-02, 1.13898955e-01, 7.97292709e-01, 0.,
          1.89831592e-02, 1.13898955e-01, 3.60680014e-01, 4.55595821e-01,
          0. ]
      - [ 1.97526649e-01, 1.18515983e-01, 9.87633243e-02, 8.49364579e-01,
          3.55547965e-01, 2.96289980e-01, 0., 3.95053290e-02, 0., 0. ]
      - [ 0., 1.64421201e-01, 1.47979081e-01, 0., 3.61726642e-01, 0., 0.,
          9.04316604e-01, 4.93263602e-02, 0. ]
      - [ 0., 9.45051730e-01, 4.57283072e-02, 4.57283072e-02,
          3.20098162e-01, 0., 0., 0., 0., 1.52427694e-02 ]
      - [ 3.43249679e-01, 0., 2.57437259e-01, 2.23112285e-01, 0., 0., 0.,
          0., 8.75286639e-01, 0. ]
      - [ 4.76010621e-01, 1.11069143e-01, 7.61617005e-01, 3.49074453e-01,
          4.76010628e-02, 0., 0., 2.38005310e-01, 1.58670209e-02, 0. ]
      - [ 8.98706242e-02, 0., 3.14547181e-01, 8.98706242e-02,
          7.18964994e-01, 0., 0., 6.06626689e-01, 0., 0. ]
      - [ 3.46167952e-01, 0., 9.17345047e-01, 0., 1.38467178e-01, 0., 0.,
          1.73083972e-02, 1.38467178e-01, 0. ]
      - [ 0., 0., 2.04149321e-01, 9.26523805e-01, 0., 0., 1.41334146e-01,
          2.82668293e-01, 0., 0. ]
      - [ 0., 0., 6.73515856e-01, 5.87167680e-01, 0., 0., 0.,
          4.49010581e-01, 0., 0. ]
      - [ 0., 0., 1.55055061e-01, 7.17129648e-01, 0., 0., 5.81456497e-02,
          6.58984005e-01, 1.55055061e-01, 0. ]
      - [ 0., 0., 1.81190353e-02, 7.06642389e-01, 0., 0., 7.24761412e-02,
          6.88523352e-01, 0., 1.44952282e-01 ]
      - [ 0., 0., 2.10928395e-01, 7.90981472e-01, 0., 0., 0.,
          5.66870034e-01, 9.22811702e-02, 0. ]
      - [ 0., 0., 1.47908926e-02, 9.90989804e-01, 0., 5.91635704e-02,
          1.47908926e-02, 1.18327141e-01, 0., 0. ]
   decision_functions:
      -
         sv_count: 9
         rho: -4.1960290842945926e-02
         alpha: [ 5.0597482938403306e+00, 3.8346356297705499e+00,
             1.6184905487307248e+01, 1.2923477805527821e+01,
             -1.0642987858761749e+01, -9.8376554652326593e+00,
             -6.9145116406964382e+00, -4.3755954506710049e-01,
             -1.0170052706688001e+01 ]
         index: [ 1, 3, 5, 6, 7, 9, 10, 11, 13 ]
      -
         sv_count: 7
         rho: -9.5634713022335296e-02
         alpha: [ 2.5523927257246370e-01, 4.4968752411473201e+00,
             2.8908837138441394e+00, 9.6391405648721562e-01,
             -7.2980882345487219e-01, -4.8096020233235750e+00,
             -3.0675014372726919e+00 ]
         index: [ 1, 2, 3, 6, 15, 17, 18 ]
      -
         sv_count: 12
         rho: -7.4715958150476280e-01
         alpha: [ 1.1669137692056113e+01, 5.7963919452358361e+00,
             4.3733458228260737e+01, 1.1256174518314129e+01,
             2.1520514927227467e+01, 1.7734259239594724e+01,
             2.7855090237014064e+01, -4.8367565049332256e+01,
             -5.1992730093762695e+01, -6.8328232464996344e+00,
             -3.5499087947018437e+00, -2.8821999603406649e+01 ]
         index: [ 0, 1, 2, 3, 4, 5, 6, 21, 24, 25, 26, 27 ]
      -
         sv_count: 6
         rho: -7.1660731389212096e-01
         alpha: [ 4.2307129437975668e+00, 4.6834802778650966e+00,
             2.8460881931544591e+01, 4.7906759026341010e+00,
             -2.1542695846908678e+01, -2.0623055208932666e+01 ]
         index: [ 1, 3, 5, 6, 32, 34 ]
      -
         sv_count: 9
         rho: 2.1053821913909143e-01
         alpha: [ 4.5769427325894272e+00, 2.8869067367789857e+01,
             6.5932542026004970e-01, 2.1450845152065736e+00,
             3.6328444951963448e+00, -2.9094412893386913e+01,
             -3.1700368388656526e+00, -1.8554205535160910e+00,
             -5.7633942452735862e+00 ]
         index: [ 1, 2, 3, 5, 6, 36, 37, 39, 40 ]
      -
         sv_count: 6
         rho: -1.1834001911906777e-01
         alpha: [ 2.9696166357021103e+00, 6.0660309915655048e+00,
             1.5969691980635630e+00, -4.5935813221135833e+00,
             -1.9796961184206932e+00, -4.0593393847969041e+00 ]
         index: [ 3, 5, 6, 45, 46, 47 ]
      -
         sv_count: 8
         rho: -2.5188422226813162e-01
         alpha: [ 1.9159246001752368e+00, 4.9441357176236087e+00,
             6.0136084685232261e-01, 1.4178847837727382e+00,
             -6.5593423636750687e+00, -1.2885188973094750e+00,
             -1.9563824457185802e-01, -8.3580644286750871e-01 ]
         index: [ 1, 2, 3, 6, 49, 50, 53, 54 ]
      -
         sv_count: 7
         rho: 1.3988348424438787e-01
         alpha: [ 2.7680103742410238e+00, 7.0461725756823590e+00,
             4.7253383134087654e+00, 1.9867786789013302e+00,
             -3.1552533906372195e+00, -7.7774323130811558e+00,
             -5.5936142385151042e+00 ]
         index: [ 1, 2, 3, 6, 55, 58, 60 ]
      -
         sv_count: 5
         rho: 3.2903651812458745e-01
         alpha: [ 3.4628612823189535e+01, 1.2767386384583856e+00,
             -4.2016249891791602e-01, -3.3941447817286409e+01,
             -1.5437411454436147e+00 ]
         index: [ 2, 3, 62, 63, 65 ]
      -
         sv_count: 9
         rho: 4.5199683691645920e-01
         alpha: [ 2.4169070970955775e+00, 9.9276176928135884e-01,
             1.9092263387194581e+00, 5.2374578091833071e+00,
             -1.9007734475521938e+00, -1.7044388786535942e+00,
             -5.3682349381822569e-01, -5.3663592128171862e+00,
             -1.0479579814385043e+00 ]
         index: [ 1, 2, 3, 6, 69, 70, 71, 72, 75 ]
      -
         sv_count: 9
         rho: -2.2476807149565184e-01
         alpha: [ 8.3484978711865987e-01, 1.0190456749868018e+00,
             1.0576082558501583e+00, 2.6043011840824288e+00,
             -1.9863648465633166e+00, -8.6958523285341938e-01,
             -8.1911803683021844e-01, -9.7208003448886759e-01,
             -8.6865675130222497e-01 ]
         index: [ 1, 2, 3, 6, 76, 77, 78, 80, 81 ]
      -
         sv_count: 8
         rho: 3.1764969505414471e-02
         alpha: [ 3.9205778966129059e+00, 9.1494072380120084e+00,
             1.5350967073080035e+00, 2.8179111939381712e-01,
             -9.3270330524923739e-01, -1.3450300153220864e+00,
             -9.7530066984216102e-01, -1.1633838970913255e+01 ]
         index: [ 1, 2, 3, 6, 82, 83, 85, 87 ]
      -
         sv_count: 7
         rho: -1.6143807441549238e-01
         alpha: [ 1.0749338178682477e+00, 8.2188312079139270e-01,
             1.8517260062849517e+00, 2.6779531227363877e+00,
             -2.2902894250786745e+00, -1.1229224720586664e+00,
             -3.0132841705436380e+00 ]
         index: [ 1, 2, 3, 6, 91, 93, 95 ]
      -
         sv_count: 7
         rho: 1.9936083246640648e-01
         alpha: [ 2.3320851967968355e+00, 9.0921716962040100e-01,
             2.2974743905548829e+00, 3.9172100869867545e+00,
             -2.0241316591180238e+00, -4.4760601412059975e+00,
             -2.9557950436348501e+00 ]
         index: [ 1, 2, 3, 6, 97, 99, 101 ]
      -
         sv_count: 11
         rho: 1.7479945784767922e-01
         alpha: [ 1.5509524149721942e+01, 8.4172926278107543e+00,
             4.3009061542267915e+01, 8.3454507561883915e+00,
             3.4830907785593812e+00, 1.6548331507879087e+01,
             -3.2931357546440779e+01, -1.8251921190288407e+00,
             -8.7851473861959040e+00, -6.3267889314751002e+00,
             -4.5444265379286833e+01 ]
         index: [ 0, 1, 2, 3, 5, 6, 103, 105, 107, 108, 109 ]
      -
         sv_count: 5
         rho: -3.5707021054595589e-01
         alpha: [ 3.6304330302052881e+00, 1.3369139964076522e+00,
             3.9518400466097754e+00, -4.9997060217790672e+00,
             -3.9194810514436469e+00 ]
         index: [ 1, 2, 6, 111, 115 ]
      -
         sv_count: 9
         rho: 1.5022173282716891e-01
         alpha: [ 1.6346936619023444e+00, 6.9902177890052608e-01,
             6.7644754588872635e-01, 2.6483818150593974e+00,
             2.6884640982251395e-01, -6.1965921446753647e-01,
             -9.6149397532786818e-01, -1.7592801609371023e+00,
             -2.5869578608410015e+00 ]
         index: [ 7, 8, 9, 11, 13, 15, 16, 17, 18 ]
      -
         sv_count: 12
         rho: 8.0561646677836185e-01
         alpha: [ 8.4681947871162322e+00, 1.5332888111946151e+01,
             7.8259729951226369e+00, 1.2628393395164938e+01,
             2.4864523804246598e+01, -8.8440605680060997e+00,
             -1.0716233728653846e+01, -6.7408206261147061e+00,
             -3.6499403705032738e+00, -2.1038254179331318e+01,
             -5.4748550225769357e+00, -1.2655808598410379e+01 ]
         index: [ 7, 8, 11, 12, 13, 21, 22, 23, 24, 25, 26, 27 ]
      -
         sv_count: 8
         rho: -6.5710632255197421e-01
         alpha: [ 1.5388516004560220e+01, 3.3691375620052533e+01,
             2.9943658245320848e-01, 5.0357289561534193e+00,
             1.0512641530587278e+01, -1.4970196197279757e+01,
             -2.4700793274696082e+01, -2.5256709221830825e+01 ]
         index: [ 7, 9, 11, 12, 13, 31, 32, 34 ]
      -
         sv_count: 9
         rho: 5.7494473693395021e-01
         alpha: [ 8.9992866382852081e-03, 2.7242551133382481e-01,
             9.7411110116722703e+00, 7.4171730288870585e-01,
             8.9991409648768013e+00, -4.4993832548977997e+00,
             -4.1921435997497190e+00, -3.9749159492769972e+00,
             -7.0969512734853737e+00 ]
         index: [ 7, 8, 9, 11, 13, 35, 37, 39, 40 ]
      -
         sv_count: 8
         rho: -5.9724845612131483e-01
         alpha: [ 3.8198528196550874e+00, 8.4916103266382876e+00,
             1.8901957823693734e+00, 1.7139322498373179e+01,
             5.9793038045380598e-01, -2.5711330832315468e+01,
             -1.5619611221747962e+00, -4.6656198529994652e+00 ]
         index: [ 7, 9, 11, 12, 13, 45, 46, 47 ]
      -
         sv_count: 8
         rho: -1.2858566348696129e-01
         alpha: [ 1.9311953674295392e+00, 1.0196309339668059e+00,
             2.0814605875261710e-01, 6.6829873820916397e-01,
             3.1156926856415077e+00, -4.3491781053678560e+00,
             -1.9964655102560969e+00, -5.9732016837568058e-01 ]
         index: [ 7, 8, 9, 11, 13, 49, 50, 53 ]
      -
         sv_count: 11
         rho: 8.2157158631955562e-01
         alpha: [ 1.6672103925880161e-01, 1.7127570409914494e+01,
             1.1639055526436529e-02, 2.5437061982215341e+00,
             2.7099251700688382e-01, 1.0041203650450743e+01,
             -7.2928078348623435e+00, -2.8677658086770913e-01,
             -2.5363497114915639e+00, -1.3824494455834769e+01,
             -6.2214042873225237e+00 ]
         index: [ 7, 8, 10, 11, 12, 13, 55, 57, 58, 59, 60 ]
      -
         sv_count: 11
         rho: 3.2085096809925517e-01
         alpha: [ 4.5218872198538740e-01, 5.4460921509980964e-01,
             2.3839979457991305e+00, 7.2367764530738399e-01,
             2.6021956418457046e+00, -9.4415585465321772e-01,
             -2.1652697781266128e+00, -2.0020762714696376e+00,
             -4.5462210923924634e-02, -5.5283580907285856e-01,
             -9.9686924579116543e-01 ]
         index: [ 7, 8, 9, 11, 13, 62, 63, 65, 66, 67, 68 ]
      -
         sv_count: 9
         rho: 5.3158426167680450e-01
         alpha: [ 2.2673372297843435e+00, 2.5266933112500736e+00,
             7.1811488489273756e-01, 2.4692731567200563e+00,
             -1.7740410846840524e+00, -2.9245580032699787e+00,
             -2.1490734474810291e+00, -2.9448697577363858e-01,
             -8.3925907143851164e-01 ]
         index: [ 8, 9, 11, 13, 69, 70, 72, 74, 75 ]
      -
         sv_count: 8
         rho: -7.6929566546050598e-02
         alpha: [ 1.8449130453075950e+00, 8.0997921935977424e-01,
             4.8836163231565366e-02, 1.6814327580207793e+00,
             -1.1928816018157333e+00, -1.2593022168790879e+00,
             -1.2147384304415747e+00, -7.1823893678331774e-01 ]
         index: [ 9, 11, 12, 13, 76, 77, 78, 80 ]
      -
         sv_count: 10
         rho: 3.9415161927152681e-01
         alpha: [ 3.4500468557934774e+00, 1.7990784994430695e+00,
             6.0251522088988985e-01, 1.9060320348505084e+00,
             -2.8445043802437482e+00, -1.5142360613566530e+00,
             -6.7059552656098687e-01, -1.9735585002509665e-01,
             -1.6896372832260318e+00, -8.4134350956442838e-01 ]
         index: [ 8, 9, 11, 13, 82, 83, 85, 86, 87, 88 ]
      -
         sv_count: 6
         rho: -8.4491486154569320e-02
         alpha: [ 2.8290957952684441e+00, 1.6531898156570848e+00,
             2.3046133993941873e+00, -3.6922016467144747e+00,
             -9.2249679033871546e-01, -2.1722005732665250e+00 ]
         index: [ 9, 11, 13, 91, 93, 95 ]
      -
         sv_count: 8
         rho: 4.0947592177980524e-01
         alpha: [ 2.1025124283701602e+00, 2.8148996882763777e+00,
             1.8167958779644797e+00, 2.9580043721300138e+00,
             -1.1497211961678788e+00, -1.9357080485740719e+00,
             -2.4405650133765149e+00, -4.1662181086225631e+00 ]
         index: [ 8, 9, 11, 13, 96, 97, 99, 101 ]
      -
         sv_count: 9
         rho: 1.3318962020646523e+00
         alpha: [ 7.6972194290259754e-01, 3.7495079561888258e+00,
             2.2601751384521553e+01, 2.5639441939444114e+00,
             1.3877690706970011e+01, -8.1032057975821754e+00,
             -8.9560161900094410e+00, -7.6350521264582811e+00,
             -1.8868342070477482e+01 ]
         index: [ 7, 8, 9, 11, 13, 103, 106, 107, 108 ]
      -
         sv_count: 6
         rho: -2.6611526752850667e-01
         alpha: [ 2.4432429299792520e+00, 3.3542849415629266e+00,
             -3.2015727906934406e+00, -8.7128630722717670e-01,
             -2.7722288345348062e-01, -1.4474458901680811e+00 ]
         index: [ 9, 13, 111, 112, 113, 115 ]
      -
         sv_count: 9
         rho: -3.2743183250934907e-02
         alpha: [ 6.3249162676896797e-01, 2.0954829102876812e-01,
             3.5362540116775643e+00, 1.7567457449212573e+00,
             -4.3019590949322595e-01, -9.8303591479732588e-01,
             -2.7386265397136369e+00, -5.4015939681149938e-01,
             -1.4430219135808706e+00 ]
         index: [ 15, 16, 17, 18, 21, 22, 24, 25, 27 ]
      -
         sv_count: 7
         rho: -1.1198628102684004e-01
         alpha: [ 1.7366569397938936e+00, 4.2624487467662786e-01,
             1.0440251777242779e+00, 1.1250599313191234e+00,
             -1.8101142021305539e+00, -9.5142062486693757e-01,
             -1.5704520965164308e+00 ]
         index: [ 14, 15, 16, 18, 29, 32, 34 ]
      -
         sv_count: 8
         rho: 6.1016036488779771e-03
         alpha: [ 1.2891804308237935e+00, 3.4133531632377867e-01,
             3.6343965902791830e+00, 1.2774074977601280e+00,
             -3.9040262647594598e-01, -4.0084924900193357e+00,
             -8.4545623578959284e-01, -1.2979684829020095e+00 ]
         index: [ 14, 15, 17, 18, 35, 36, 37, 40 ]
      -
         sv_count: 8
         rho: -1.6772478348766104e-01
         alpha: [ 1.2012262522399484e+00, 1.0556724457728630e+00,
             9.4549778902299619e-01, 1.0713947712827228e+00,
             -1.3647579149169722e-01, -9.0518768906817260e-01,
             -1.5641587912655581e+00, -1.6679689864931029e+00 ]
         index: [ 14, 15, 16, 18, 42, 43, 46, 47 ]
      -
         sv_count: 11
         rho: -5.8097658825954324e-01
         alpha: [ 1.6775023137743215e+01, 4.3121882911411603e+01,
             6.7590958796749039e+00, 6.8205428228394451e+00,
             9.8005519051108925e-01, 2.8411882616817674e-01,
             6.2500000000000000e+01, -5.7379409782610495e+01,
             -2.6336975318984969e+01, -9.5827917213136349e+00,
             -4.3941541945439354e+01 ]
         index: [ 14, 15, 16, 17, 18, 19, 20, 48, 50, 52, 53 ]
      -
         sv_count: 9
         rho: 1.6394499867244183e-01
         alpha: [ 1.6039932574311675e+00, 1.3159714401612560e-01,
             3.7489890155863814e+00, 2.7773922129806023e+00,
             9.2096689522974251e-01, -2.9211729946270437e+00,
             -8.0087627435244035e-01, -2.0091409796283703e+00,
             -3.4517482766361667e+00 ]
         index: [ 15, 16, 17, 18, 20, 55, 57, 60, 61 ]
      -
         sv_count: 12
         rho: 1.7319669053537130e+00
         alpha: [ 1.4173698113345312e+01, 1.4872831002280128e+01,
             1.8056664289993414e+01, 3.5386344095145201e+00,
             4.2119619945439748e+00, -4.8587593713084178e+00,
             -9.1015087475775918e+00, -2.6029832105426639e+01,
             -3.8267863179506425e+00, -3.1055871863680777e+00,
             -7.2776020801358223e+00, -6.5371400091015486e-01 ]
         index: [ 15, 16, 17, 18, 20, 62, 63, 64, 65, 66, 67, 68 ]
      -
         sv_count: 11
         rho: 1.1152862212161436e+00
         alpha: [ 8.0230194585421959e+00, 1.6553876699496108e+01,
             3.9771811522814833e+00, 2.6889314055187254e+00,
             4.2621142876751996e+00, 7.8534281254501801e+00,
             -4.7542894117621568e+00, -9.3825473582269781e-01,
             -5.9909415365688297e+00, -2.9052157756655838e+01,
             -2.6229076881543634e+00 ]
         index: [ 15, 16, 17, 18, 19, 20, 69, 70, 71, 73, 74 ]
      -
         sv_count: 7
         rho: -3.2308695469689092e-01
         alpha: [ 1.1565808819408736e+00, 1.0947136016583208e+00,
             1.4824670769371124e+00, 1.8858824804612753e+00,
             -3.2261696987631754e+00, -5.0546652755749222e-01,
             -1.8880078146769153e+00 ]
         index: [ 14, 15, 16, 18, 78, 80, 81 ]
      -
         sv_count: 10
         rho: 6.3499431524260949e-02
         alpha: [ 3.4741564529940359e+00, 8.0757586060535436e-01,
             5.9935611791611354e+00, 4.5162330446483399e+00,
             3.1256661719445766e+00, -1.1111874662753920e+00,
             -2.1254702963169692e+00, -7.0696933431516502e+00,
             -5.5869372525369032e+00, -2.0239043510725265e+00 ]
         index: [ 15, 16, 17, 18, 20, 83, 85, 86, 87, 88 ]
      -
         sv_count: 8
         rho: -2.6208458550191477e-01
         alpha: [ 1.9483573074795865e-01, 2.2001070338089761e+00,
             4.6807925096944434e+00, 3.2208239135355901e+00,
             -1.2319410815300491e+00, -5.1767955648019184e+00,
             -9.9121708872040459e-01, -2.8966054527345984e+00 ]
         index: [ 14, 16, 18, 20, 89, 92, 93, 95 ]
      -
         sv_count: 10
         rho: 1.1756823224049748e-01
         alpha: [ 1.3217316846614471e+00, 4.9615448025589409e-01,
             1.1215569096498318e-01, 3.5207345938514072e+00,
             1.5605013792900977e+00, -4.2118381610027256e-01,
             -3.2436501023078055e+00, -5.5759346297146573e-01,
             -2.4859284823708077e+00, -3.0292196527347748e-01 ]
         index: [ 14, 15, 17, 18, 20, 96, 97, 99, 101, 102 ]
      -
         sv_count: 8
         rho: 2.2587703530936251e-01
         alpha: [ 2.5008645723037066e+00, 3.6386503239284980e+00,
             1.7367288919807866e+00, -1.0010747874996666e+00,
             -6.9116310288491734e-01, -2.3944323503613933e+00,
             -4.5697643514817898e-01, -3.3325971123188354e+00 ]
         index: [ 15, 17, 18, 103, 104, 105, 106, 109 ]
      -
         sv_count: 8
         rho: -3.0528225624078237e-01
         alpha: [ 7.8117009360677958e-01, 4.4768315575516401e-02,
             1.4385506206810357e+00, 7.7946019072538819e-01,
             8.6116173240425375e-01, -2.1760005960624080e+00,
             -1.0828263207959119e+00, -6.4628403613465313e-01 ]
         index: [ 14, 15, 16, 17, 18, 111, 113, 115 ]
      -
         sv_count: 7
         rho: -1.7441977390280603e+00
         alpha: [ 1.1940902237720101e+01, 9.3643061604588951e+00,
             2.6082026034003394e+00, 1.3160112762488081e+00,
             -2.6402795053201218e+00, -1.9132046411542445e+00,
             -2.0675938131353771e+01 ]
         index: [ 24, 25, 26, 27, 29, 32, 34 ]
      -
         sv_count: 9
         rho: -1.9382906009950759e-01
         alpha: [ 7.2337301374883056e+00, 7.1834570771574073e+00,
             9.6768988210059153e+00, 1.7866214749799221e+00,
             -2.2481367527048053e+00, -9.9962881771287009e+00,
             -1.6000386622841236e+00, -6.3671379538768402e+00,
             -5.6691059646370832e+00 ]
         index: [ 21, 23, 24, 25, 36, 37, 38, 39, 40 ]
      -
         sv_count: 9
         rho: -3.1479689764412316e-01
         alpha: [ 7.8491375264527041e-01, 1.0890341949559568e+00,
             1.5510961638477438e+00, 2.7833588737685147e+00,
             1.6363435703228457e+00, 8.5833127564805556e-01,
             -3.4141116404695055e+00, -3.1578294923979273e+00,
             -2.1311366983209545e+00 ]
         index: [ 21, 22, 24, 25, 26, 27, 45, 46, 47 ]
      -
         sv_count: 7
         rho: -3.7249477394192404e-01
         alpha: [ 1.1465345600446348e+00, 5.5299519906633368e+00,
             2.8998853390534443e+00, -8.5739688215528140e+00,
             -2.1179733363095393e-01, -1.1695963950034831e-01,
             -6.7364609507730666e-01 ]
         index: [ 21, 23, 24, 49, 50, 53, 54 ]
      -
         sv_count: 10
         rho: -2.4008840123711420e-02
         alpha: [ 1.0226753576681435e+00, 7.5731804668437084e+00,
             1.4360912968063242e+00, 3.3875098211688712e+00,
             6.3643201439094916e+00, 2.7276544821006858e+00,
             -8.4964267086577454e+00, -4.3355351416533301e+00,
             -3.8064850945082349e+00, -5.8729846236779144e+00 ]
         index: [ 21, 22, 23, 24, 25, 27, 55, 58, 59, 60 ]
      -
         sv_count: 8
         rho: 2.7937766359945337e-01
         alpha: [ 3.9114064373031305e+00, 6.6968030751321152e-03,
             7.3990108005271686e+00, 3.2439359841400328e-01,
             -7.9308993947639850e-01, -7.4596114689917457e+00,
             -2.8805380085013357e+00, -5.0826822234995317e-01 ]
         index: [ 21, 22, 24, 25, 62, 63, 65, 67 ]
      -
         sv_count: 8
         rho: 4.7040392404058196e-01
         alpha: [ 6.6897108263351122e+00, 6.3958553511379068e-01,
             3.4001310376666298e+00, -1.2305659561375579e+00,
             -2.6210693934542926e+00, -1.1827555317557557e+00,
             -5.0450762629005821e+00, -6.4996025486734932e-01 ]
         index: [ 21, 24, 25, 69, 70, 71, 72, 75 ]
      -
         sv_count: 8
         rho: -1.5763798981141483e-01
         alpha: [ 3.4881663186619285e+00, 7.4380341174120213e-01,
             1.1163039941149708e+00, -2.1593911283698208e+00,
             -1.0742544352255416e+00, -3.5176631291584598e-01,
             -9.4505526618021818e-01, -8.1780658182667487e-01 ]
         index: [ 21, 24, 25, 76, 77, 78, 80, 81 ]
      -
         sv_count: 9
         rho: 3.7915818647236949e-02
         alpha: [ 2.6816831171760795e+00, 2.3251709897730785e-01,
             4.3604890708726805e+00, 1.6915397571914117e+00,
             -1.7845637803803278e+00, -1.2475509801720008e+00,
             -7.9107766673644886e-01, -2.8281292177347905e-01,
             -4.8602236951552245e+00 ]
         index: [ 21, 22, 24, 25, 82, 83, 85, 86, 87 ]
      -
         sv_count: 8
         rho: -7.5338564290709301e-02
         alpha: [ 2.4065156438476318e+00, 4.2187872765185963e-01,
             5.1807189618731442e-01, 1.1398996650973037e+00,
             1.0356040306174445e+00, -2.4068063650030513e+00,
             -2.5504527653740766e-01, -2.8601183218610950e+00 ]
         index: [ 21, 22, 24, 25, 27, 91, 93, 95 ]
      -
         sv_count: 8
         rho: 1.7058763547925926e-01
         alpha: [ 4.8381999138518008e+00, 4.4892425234102079e-01,
             6.6806130214385395e-01, 3.1415690840709063e+00,
             -1.1852493507755302e+00, -8.5919623849759885e-01,
             -4.4055560170887027e+00, -2.6467529460457517e+00 ]
         index: [ 21, 22, 24, 25, 96, 97, 99, 101 ]
      -
         sv_count: 11
         rho: 7.1031776547259462e-01
         alpha: [ 1.4159419350919302e+01, 9.4485539995188432e+00,
             2.1153813138077567e+01, 3.3783056006628760e+00,
             9.4287723308859217e+00, -1.6961186290562122e+01,
             -1.0558752247045429e+00, -1.7429586072912993e+00,
             -6.9124823216653501e+00, -4.7279931575828140e+00,
             -2.6168368818258394e+01 ]
         index: [ 21, 23, 24, 25, 27, 103, 105, 106, 107, 108, 109 ]
      -
         sv_count: 5
         rho: -2.3346662532739701e-01
         alpha: [ 6.4931245873117085e+00, 1.3480921246523287e+00,
             6.5229522188429023e-01, -3.7603431560814786e+00,
             -4.7331687777668447e+00 ]
         index: [ 21, 24, 25, 111, 115 ]
      -
         sv_count: 5
         rho: -2.5421053175572228e-01
         alpha: [ 1.1310650159036321e+01, 3.0090441031957585e+01,
             1.2365782253035160e+01, -4.3704140594489004e+01,
             -1.0062732849540073e+01 ]
         index: [ 29, 30, 32, 35, 40 ]
      -
         sv_count: 12
         rho: 1.7436660592268229e+00
         alpha: [ 1.7587498263326740e+01, 2.2765240861235849e+01,
             1.5109482448995415e+01, 6.2500000000000000e+01,
             2.2815495912255788e+01, 6.2500000000000000e+01,
             7.3403585292265365e+00, -6.2500000000000000e+01,
             -6.2500000000000000e+01, -4.0854804614628939e+01,
             -7.8520097288171407e+00, -3.6911261671594268e+01 ]
         index: [ 28, 29, 30, 31, 32, 33, 34, 42, 44, 45, 46, 47 ]
      -
         sv_count: 7
         rho: 3.1357743323004082e-02
         alpha: [ 2.5917979935394109e+00, 2.0460816773687069e+00,
             1.1875196283617380e+00, -2.0121320694183655e+00,
             -2.2055040816088534e+00, -5.2590506625489541e-01,
             -1.0818580819877437e+00 ]
         index: [ 29, 32, 34, 49, 50, 51, 54 ]
      -
         sv_count: 7
         rho: 5.4686112418670441e-01
         alpha: [ 2.1481349931666047e+00, 1.8353394912040217e+00,
             3.9468732041474435e+00, -2.6043315903880471e+00,
             -6.3547460188682148e-01, -2.1104324605730351e+00,
             -2.5801090356701666e+00 ]
         index: [ 29, 32, 34, 55, 57, 58, 60 ]
      -
         sv_count: 6
         rho: 3.6216837211090280e-01
         alpha: [ 2.7086097632251981e+01, 1.9599791189575125e-01,
             -1.1250636305410820e+01, -4.7048608626501809e-01,
             -2.1306498867362439e-01, -1.5347908163798259e+01 ]
         index: [ 29, 32, 62, 63, 66, 68 ]
      -
         sv_count: 4
         rho: 8.7031350146412922e-01
         alpha: [ 5.6260525559431905e+01, -1.4145986976804368e+00,
             -2.0748380775784289e-01, -5.4638443053993626e+01 ]
         index: [ 29, 70, 72, 74 ]
      -
         sv_count: 6
         rho: -5.6683162693097311e-02
         alpha: [ 2.3853015777727427e+00, 2.0167845878326944e+00,
             3.9351853388192060e-01, -5.9562854261472964e-01,
             -1.5242867573143428e+00, -2.6756893995582862e+00 ]
         index: [ 29, 32, 34, 76, 77, 79 ]
      -
         sv_count: 7
         rho: 2.7212966441753272e-01
         alpha: [ 4.8646763234939527e+00, 2.3431307873515315e+00,
             1.1097665613956655e+00, -7.4965842017996887e-01,
             -5.5756687629148347e+00, -1.4273948181320042e+00,
             -5.6485167101434297e-01 ]
         index: [ 29, 32, 34, 82, 83, 87, 88 ]
      -
         sv_count: 7
         rho: -4.5660242491352122e-02
         alpha: [ 1.4687456831541326e+01, 5.1594087558296033e+00,
             -2.8049674301511702e+00, -1.2027491499361433e+01,
             -1.2548064149420290e+00, -3.3727007477543325e-01,
             -3.4223301681408613e+00 ]
         index: [ 29, 32, 90, 91, 92, 93, 94 ]
      -
         sv_count: 8
         rho: 2.2438642890133356e-01
         alpha: [ 7.8656917768383634e+00, 4.4526458254080499e+00,
             8.6022221380917352e-01, -4.3847190791278190e-01,
             -7.5027503642474369e-01, -4.6973855169183940e-02,
             -8.8959388240395079e+00, -3.0469001925093768e+00 ]
         index: [ 29, 32, 34, 97, 98, 99, 101, 102 ]
      -
         sv_count: 12
         rho: -6.3790833225890697e-01
         alpha: [ 6.1070546627372160e+00, 3.6399112672141968e+01,
             2.8819008787367906e+01, 2.3826857120328484e+01,
             4.5776577087314685e+01, -1.0848162700686135e+01,
             -6.2500000000000000e+01, -3.3395956047946734e-01,
             -1.1640863154468883e+00, -3.4309081982105800e+00,
             -6.2500000000000000e+01, -1.5149355506717027e-01 ]
         index: [ 28, 29, 30, 32, 33, 103, 104, 105, 106, 107, 108, 109 ]
      -
         sv_count: 5
         rho: -1.4868767954804890e-01
         alpha: [ 2.5987091330669649e+00, 5.2982292373938815e+00,
             -3.5104406506414008e+00, -7.5703370378433155e-01,
             -3.6294640160351164e+00 ]
         index: [ 29, 32, 111, 112, 113 ]
      -
         sv_count: 6
         rho: -1.5052478023907692e-01
         alpha: [ 1.2817013193792247e+01, 1.2075935422894357e+00,
             3.5895465994034184e+00, -1.0229806203093387e+01,
             -2.8625476372642882e+00, -4.5217994951274205e+00 ]
         index: [ 35, 37, 40, 44, 46, 47 ]
      -
         sv_count: 9
         rho: -1.8990099935330187e-01
         alpha: [ 2.1307157820363376e-01, 3.6397453158322182e+00,
             6.2876856531193885e+00, 8.3657850860631960e-02,
             1.6182894245986006e+00, 9.2233804383804874e-01,
             -9.7618847671793940e+00, -6.5784356341055561e-02,
             -2.9371187429320735e+00 ]
         index: [ 35, 36, 37, 39, 40, 41, 49, 50, 54 ]
      -
         sv_count: 8
         rho: 6.5007593645497919e-01
         alpha: [ 2.6977779331420071e+00, 4.9117512874120086e+00,
             4.1640089721445905e+00, 2.6120525843475701e+00,
             -2.8936491680255578e+00, -7.1314448305460951e+00,
             -2.5255059864206810e+00, -1.8349907920538409e+00 ]
         index: [ 36, 37, 39, 40, 55, 58, 59, 60 ]
      -
         sv_count: 5
         rho: 1.1009610154976610e+00
         alpha: [ 2.7438309678589249e+01, 3.1893298549064846e+00,
             -2.4806619886146770e+01, -1.0836050286871921e+00,
             -4.7374146186617807e+00 ]
         index: [ 36, 40, 63, 65, 68 ]
      -
         sv_count: 8
         rho: 1.1751174174496457e+00
         alpha: [ 1.4812593407136059e+00, 8.6020218739412424e-01,
             1.6977936781746834e+01, 6.0326987517700346e+00,
             -5.2841361157794244e+00, -4.8654901419014562e-01,
             -1.4362092026062914e+01, -5.2193199055921138e+00 ]
         index: [ 35, 37, 40, 41, 69, 70, 72, 74 ]
      -
         sv_count: 9
         rho: -1.9662474105138561e-01
         alpha: [ 6.7003734997298225e-01, 1.6291047242128581e-01,
             1.0203367895493831e+00, 5.0755879232510139e+00,
             5.0365896526193044e-01, -3.3464139366038346e+00,
             -2.7041123359912858e+00, -7.4647602356268461e-01,
             -6.3552920429879400e-01 ]
         index: [ 35, 36, 37, 40, 41, 76, 77, 78, 79 ]
      -
         sv_count: 7
         rho: 2.4944218326159815e-02
         alpha: [ 8.1496201765658114e+00, 1.3170946847743010e+00,
             8.6789302579748251e-01, 3.4738495654635653e+00,
             -7.2623786809189927e-01, -3.6086076065809869e+00,
             -9.4736119779282699e+00 ]
         index: [ 36, 37, 39, 40, 82, 83, 87 ]
      -
         sv_count: 4
         rho: -4.5607497099145389e-01
         alpha: [ 7.9587896246173724e+00, 1.4854594560146058e+01,
             -1.7875410900245019e+01, -4.9379732845184074e+00 ]
         index: [ 40, 41, 91, 95 ]
      -
         sv_count: 5
         rho: 1.4092374498224083e-01
         alpha: [ 1.3190260306227151e+01, 3.6831407607446863e+01,
             -7.3815318142231803e+00, -3.8736734926825442e+01,
             -3.9034011726253914e+00 ]
         index: [ 40, 41, 99, 101, 102 ]
      -
         sv_count: 12
         rho: 7.5353983837769911e-01
         alpha: [ 2.5875250642877923e+01, 2.9376072902479521e+01,
             4.5029424217950016e+01, 1.1658319000440740e+01,
             1.5456195281364199e+01, -2.6124446937028272e+00,
             -1.3662062187530051e+01, -4.4558286190746283e+00,
             -1.0622272368555743e+00, -3.9094554515160524e+01,
             -1.9935665853993342e+01, -4.6572478938795420e+01 ]
         index: [ 35, 36, 37, 39, 40, 103, 104, 105, 106, 107, 108, 109 ]
      -
         sv_count: 7
         rho: 2.8089297839275290e-01
         alpha: [ 1.6506243006726760e+00, 4.8266081372791525e+01,
             2.7455605302142163e+00, -8.9721093157425913e-01,
             -1.1141099842481976e+01, -1.3401408700621079e+01,
             -2.7222546729001092e+01 ]
         index: [ 36, 40, 41, 111, 113, 114, 115 ]
      -
         sv_count: 8
         rho: 7.1054030812744071e-02
         alpha: [ 4.9448007743625810e-01, 2.3660950513642511e+00,
             3.6044283014300813e+00, -2.2139939897331176e+00,
             -4.5533821463540497e-01, -1.2793147991242967e-01,
             -1.9542957326615698e-01, -3.4723101726834820e+00 ]
         index: [ 42, 46, 47, 49, 50, 51, 52, 54 ]
      -
         sv_count: 7
         rho: 4.5138298063421051e-01
         alpha: [ 2.1376673301621341e+00, 5.4430325955736638e+00,
             2.2988577726502863e+00, -5.4759776010465870e+00,
             -1.4799126071365942e+00, -1.1246496770373764e+00,
             -1.7990178131655268e+00 ]
         index: [ 45, 46, 47, 55, 57, 58, 60 ]
      -
         sv_count: 8
         rho: 3.2416396935844666e-01
         alpha: [ 4.8695117246878077e+00, 2.8983112391190113e+00,
             2.5506036217031225e+00, -6.8167478529770120e+00,
             -1.1348859769962736e+00, -2.1812822556918085e-01,
             -1.3146796026930989e+00, -8.3398492727437512e-01 ]
         index: [ 42, 46, 47, 62, 63, 65, 66, 67 ]
      -
         sv_count: 9
         rho: 4.4443017137998569e-01
         alpha: [ 5.5594552129059327e+00, 4.0118978099477101e+00,
             3.3083389658811537e+00, -3.0242611985181229e+00,
             -7.6764598664816575e-01, -8.5377215269971174e-01,
             -1.1516004800170285e+00, -6.4855810301197909e+00,
             -5.9683114073197907e-01 ]
         index: [ 42, 46, 47, 69, 70, 71, 72, 74, 75 ]
      -
         sv_count: 6
         rho: -1.0689171461245706e-01
         alpha: [ 6.4089791237560789e-01, 1.1909603523424332e+00,
             3.2181665311915597e+00, -3.3594942195186390e+00,
             -1.5040568685161564e+00, -1.8647370787480480e-01 ]
         index: [ 42, 46, 47, 77, 78, 80 ]
      -
         sv_count: 8
         rho: 2.5562461918606244e-01
         alpha: [ 2.4084633453333066e+00, 1.9361491656526122e+00,
             2.2950627777154402e+00, -1.6718379267269563e-02,
             -4.1077920484081334e+00, -1.5181732108387830e-01,
             -1.1583689340574628e+00, -1.2049786058846170e+00 ]
         index: [ 42, 46, 47, 82, 83, 86, 87, 88 ]
      -
         sv_count: 8
         rho: -2.8441299520521729e-01
         alpha: [ 4.6319028363135164e+00, 5.3551362523495207e+00,
             1.6048688232600921e+00, -9.5204177378736432e-01,
             -8.2091827248331306e+00, -9.6984016031055309e-01,
             -4.7528443902133455e-01, -9.8555881397074341e-01 ]
         index: [ 42, 46, 47, 90, 91, 92, 93, 95 ]
      -
         sv_count: 7
         rho: 4.6579609467995664e-02
         alpha: [ 3.8428594770804079e+00, 9.1072744242943688e+00,
             2.2147200878165751e+00, -6.2116856768871798e-01,
             -9.2472416534466861e-01, -1.4797900435842302e+00,
             -1.2139171212573736e+01 ]
         index: [ 42, 46, 47, 96, 97, 99, 101 ]
      -
         sv_count: 8
         rho: 1.2178787458748670e+00
         alpha: [ 2.1636983150080201e+01, 5.5620395508148107e+01,
             7.1319967750255406e+00, 2.6915039396144724e+01,
             -5.3352547330117810e+00, -3.2793535176828499e+01,
             -1.0675624919558304e+01, -6.2500000000000000e+01 ]
         index: [ 42, 44, 46, 47, 103, 104, 105, 108 ]
      -
         sv_count: 5
         rho: -2.7439051868412262e-01
         alpha: [ 1.2326262853960321e+00, 1.2643377993417944e+00,
             2.2637471667121845e+00, -2.0549263748411026e+00,
             -2.7057848766089068e+00 ]
         index: [ 42, 46, 47, 111, 113 ]
      -
         sv_count: 8
         rho: 6.2447355323289466e-01
         alpha: [ 7.8739463838841202e+00, 1.3308249485336168e+00,
             1.6627550640832234e+00, 1.1294217786275795e+00,
             -4.8823342097949425e+00, -4.8044592948498241e+00,
             -1.8089615516704394e+00, -5.0119311881333173e-01 ]
         index: [ 49, 50, 51, 53, 55, 58, 59, 60 ]
      -
         sv_count: 11
         rho: 2.2874184332472578e+00
         alpha: [ 9.2793455794009212e+00, 2.5978542982477379e+00,
             8.4416740233825340e+00, 1.3779090442843129e+01,
             4.2901020216174919e+00, -2.3177589873086790e-01,
             -1.4930022259506879e+01, -2.8931456258225756e+00,
             -7.7829920003215127e+00, -5.9396285438354335e+00,
             -6.6105020372745429e+00 ]
         index: [ 48, 49, 50, 53, 54, 62, 64, 65, 66, 67, 68 ]
      -
         sv_count: 9
         rho: 1.8330328828900635e+00
         alpha: [ 1.1825175338410251e+01, 1.0232281427596057e+00,
             5.2867814630497101e+00, 6.2895316904910761e+00,
             7.4458685650150880e+00, -9.1524389643724220e+00,
             -8.5033290009797680e-01, -4.7277324962077882e+00,
             -1.7140080839047542e+01 ]
         index: [ 48, 49, 50, 53, 54, 69, 70, 71, 73 ]
      -
         sv_count: 5
         rho: -1.3174373855880386e-01
         alpha: [ 1.1867118352073633e+00, 1.9633768076186653e+00,
             3.1830531162391780e+00, -3.5519599493953713e+00,
             -2.7811818096698371e+00 ]
         index: [ 49, 50, 54, 77, 78 ]
      -
         sv_count: 8
         rho: 5.1375279177855393e-01
         alpha: [ 2.3864775430329361e+00, 4.0184740568486141e+00,
             3.4569530580449901e+00, 2.9831820581039183e+00,
             -2.2222916898673826e+00, -5.0926920911577360e+00,
             -4.5213452906424383e+00, -1.0087576443629032e+00 ]
         index: [ 48, 49, 50, 53, 83, 86, 87, 88 ]
      -
         sv_count: 8
         rho: 3.9156193850295923e-01
         alpha: [ 5.2463020531452287e-01, 8.5953560507206994e+00,
             2.4052472667116707e+00, 5.5683525742768014e-01,
             1.0605968469835629e+00, -7.0477717298314531e+00,
             -5.3509329555968845e+00, -7.4396094172979987e-01 ]
         index: [ 49, 50, 51, 52, 54, 92, 94, 95 ]
      -
         sv_count: 8
         rho: 2.8725142596026720e-01
         alpha: [ 3.1000138971481102e+00, 2.7131581785711951e+00,
             1.9327852415030593e+00, 1.0938935489005082e+00,
             -1.9236357925989662e+00, -8.4629542758096390e-03,
             -4.5953208560804635e+00, -2.3124312631676331e+00 ]
         index: [ 49, 50, 51, 54, 96, 97, 101, 102 ]
      -
         sv_count: 7
         rho: 5.9643267736463856e-01
         alpha: [ 9.7794948664500758e+00, 3.3814558171781850e+00,
             -1.6646480479357733e+00, -1.3843182096737499e+00,
             -6.9247455610993480e-01, -4.0120043139548267e+00,
             -5.4075055559539766e+00 ]
         index: [ 49, 54, 104, 105, 106, 107, 109 ]
      -
         sv_count: 6
         rho: -1.5212360755936588e-01
         alpha: [ 1.1644229461434918e+00, 5.5013515448729100e+00,
             4.5082269866516694e-01, -6.0445918362492157e-01,
             -2.0261004844605868e+00, -4.4860375215960619e+00 ]
         index: [ 49, 50, 54, 110, 111, 113 ]
      -
         sv_count: 10
         rho: 1.4963952922745341e-01
         alpha: [ 2.2161445077546471e+00, 7.7455123350792254e+00,
             8.7370314717245809e-02, 3.0248030411783153e+00,
             -7.3152588095142370e+00, -7.4200380696233781e-01,
             -1.3010026565821409e+00, -1.0851160483822788e+00,
             -7.6700181107748555e-01, -1.8634470662109557e+00 ]
         index: [ 55, 58, 59, 60, 63, 64, 65, 66, 67, 68 ]
      -
         sv_count: 11
         rho: 3.9615948779324467e-01
         alpha: [ 1.4248497516529659e+00, 1.5300252792943905e+00,
             1.4529955670547601e+00, 7.1472757479656224e-01,
             3.2358954536715885e+00, 5.1991653697842422e+00,
             -1.7937623267198703e+00, -6.4781635060907261e+00,
             -2.0913009555656772e+00, -1.8330887013652444e+00,
             -1.3613435065129944e+00 ]
         index: [ 55, 56, 57, 58, 59, 60, 69, 70, 71, 72, 75 ]
      -
         sv_count: 9
         rho: 5.9936020206337981e-01
         alpha: [ 3.8418140967038585e+00, 1.7321232926082093e+01,
             1.9163440305919348e+01, 1.8609010342419307e+01,
             -1.1500725193565142e+01, -4.3984034793384232e+00,
             -1.3704664821650672e+01, -2.5112871372822071e-01,
             -2.9080575462842152e+01 ]
         index: [ 55, 56, 57, 61, 76, 77, 78, 79, 80 ]
      -
         sv_count: 13
         rho: 1.0001586162140705e+00
         alpha: [ 7.4451657116776992e-01, 3.5888704068516425e-01,
             2.0780046655291429e+01, 4.7740298690903810e-01,
             5.6243541057068578e+00, 1.1376411707191595e+01,
             9.3257727424435615e+00, -2.6031554960101104e+00,
             -1.1911830230762083e+01, -7.1722557527420481e+00,
             -1.5077847959938889e+01, -9.3931694143895452e+00,
             -2.5291329555527331e+00 ]
         index: [ 55, 56, 57, 58, 59, 60, 61, 82, 83, 84, 85, 87, 88 ]
      -
         sv_count: 7
         rho: -3.7796895829171860e-02
         alpha: [ 2.8711677453769391e+00, 2.1876456657719117e+00,
             1.1675736250086265e+01, 1.6444387052203426e+00,
             -6.7059243716374590e+00, -1.5613913331908371e+00,
             -1.0111672661627166e+01 ]
         index: [ 55, 56, 57, 60, 90, 91, 95 ]
      -
         sv_count: 11
         rho: 2.6305381095447750e-01
         alpha: [ 1.6037079973490191e+00, 2.4314929831874763e-01,
             3.0229820572731159e+00, 3.2874546261748255e-01,
             4.0034341003660607e+00, 4.6911015201662893e+00,
             -3.3117477689475030e+00, -3.0637423730802595e+00,
             -1.0875219041993061e+00, -2.9045755963970943e+00,
             -3.5255327934665517e+00 ]
         index: [ 55, 56, 57, 58, 59, 60, 96, 97, 98, 99, 101 ]
      -
         sv_count: 10
         rho: 1.3372211823738760e+00
         alpha: [ 4.1194471227589524e-01, 9.6044786395550812e+00,
             3.6793611704549072e+01, 1.1563435910264964e+01,
             -1.4838840808601441e+00, -4.1957992868956140e+00,
             -3.6761221958425168e+01, -2.1816453678241738e+00,
             -9.6489337374599760e-01, -1.2786026898893944e+01 ]
         index: [ 56, 58, 59, 60, 103, 105, 106, 107, 108, 109 ]
      -
         sv_count: 8
         rho: -5.1425385954327618e-01
         alpha: [ 1.0261332871029658e+00, 1.7578775328659120e+00,
             5.6832495466674382e-01, 8.8519795473120466e-01,
             7.8170480580891633e-01, -2.5626906229621063e+00,
             -1.3718989085673368e+00, -1.0846490036462997e+00 ]
         index: [ 55, 56, 57, 58, 60, 111, 113, 115 ]
      -
         sv_count: 12
         rho: 1.9469888673982818e+00
         alpha: [ 6.2500000000000000e+01, 6.2500000000000000e+01,
             1.1071153202045547e+01, 2.6560578216873241e+00,
             4.3317299509750569e+01, 1.0698719300493615e+01,
             -5.8558910759142817e+00, -2.5855974164677824e+00,
             -4.4511375789135244e+01, -4.3528498748867833e+01,
             -6.2500000000000000e+01, -3.3761866803591900e+01 ]
         index: [ 62, 64, 65, 66, 67, 68, 69, 70, 71, 73, 74, 75 ]
      -
         sv_count: 9
         rho: -7.3321970453858254e-01
         alpha: [ 2.8321793303459692e+00, 1.6079851300823694e-01,
             2.3512674422920719e+00, 2.1918012163088529e+00,
             1.2424194667663209e+00, -3.5152667512603881e+00,
             -3.2288009166625002e+00, -1.5627089393171617e-02,
             -2.0187712114053920e+00 ]
         index: [ 62, 63, 65, 66, 67, 77, 78, 80, 81 ]
      -
         sv_count: 9
         rho: -1.3221131668243524e+00
         alpha: [ 2.2259506667034792e+01, 2.8421324237098564e+00,
             6.1752461003116750e+00, 5.6075360200025752e+00,
             1.8353829324227171e+00, -3.8642956353001412e+00,
             -5.2331531527886082e+00, -2.7979040986139481e+01,
             -1.6433143692533869e+00 ]
         index: [ 63, 64, 65, 66, 68, 83, 86, 87, 88 ]
      -
         sv_count: 9
         rho: -7.0959280891035181e-01
         alpha: [ 2.3187688029228283e+01, 1.6574601916074867e+00,
             5.8598859334226718e+00, 6.1290757078677505e-01,
             9.2829830564461542e+00, -5.0663990740726268e+00,
             -1.4030675509389196e+01, -1.1587788683782843e+01,
             -9.9160615142467048e+00 ]
         index: [ 62, 63, 65, 66, 68, 90, 91, 92, 94 ]
      -
         sv_count: 10
         rho: -3.2600447968590002e-01
         alpha: [ 3.0439933394580323e+00, 4.2667043885792761e+00,
             2.8912931475820680e-01, 2.4800964442928447e-01,
             9.7480100121996429e+00, -1.7241752029423572e+00,
             -7.7234520181271926e-01, -1.5771835469657206e-01,
             -9.7677406570662804e+00, -5.1738672829065120e+00 ]
         index: [ 63, 65, 66, 67, 68, 96, 97, 99, 101, 102 ]
      -
         sv_count: 11
         rho: 6.6727524068664543e-02
         alpha: [ 1.5408769004129197e+00, 1.1111956248890072e+01,
             3.0566074801390721e+00, 2.8613751476543179e+00,
             6.2535864688320713e+00, -2.3307680752125864e-01,
             -7.8687315702766130e+00, -4.5657424284793713e+00,
             -2.6352002459678914e-01, -1.8642894216370351e+00,
             -1.0029041993417378e+01 ]
         index: [ 62, 63, 66, 67, 68, 103, 104, 105, 106, 107, 109 ]
      -
         sv_count: 7
         rho: -9.7172877384749512e-01
         alpha: [ 3.5542457183956584e+00, 1.6651308273320047e+00,
             4.8772048769283334e+00, -3.6451441724359329e-01,
             -4.1668173028339757e+00, -3.2715826615913506e+00,
             -2.2936670409870805e+00 ]
         index: [ 62, 63, 65, 110, 111, 113, 115 ]
      -
         sv_count: 10
         rho: -8.4002033621967842e-01
         alpha: [ 1.6666094028254286e+00, 2.7629773412855474e-01,
             4.2495537959661478e+00, 4.0010841193719129e+00,
             1.6017859911802820e-01, 8.0332691410969581e-01,
             -1.9056849086555301e+00, -3.9095237678459815e+00,
             -1.3772174113648250e+00, -3.9646244776534316e+00 ]
         index: [ 69, 70, 71, 72, 73, 74, 76, 77, 78, 81 ]
      -
         sv_count: 12
         rho: -8.0740479875906956e-01
         alpha: [ 6.4396807132067724e-01, 2.2445821555035138e+01,
             2.4094478756715829e+00, 3.9727651120101535e+00,
             3.9678667138457770e+00, 3.8146703145389060e-01,
             3.7698899065221285e+00, -2.0556253440762475e+01,
             -5.6706908832720275e+00, -6.4847731086837124e+00,
             -1.6275571135425613e+00, -3.2519517195985617e+00 ]
         index: [ 69, 70, 71, 72, 73, 74, 75, 82, 83, 86, 87, 88 ]
      -
         sv_count: 10
         rho: -1.5752597832648081e+00
         alpha: [ 3.0118054278444992e+00, 1.3077536138645829e+00,
             5.7116615566647768e+00, 2.8611598484935237e+00,
             1.9435090175823884e+01, -2.5475757372651815e+00,
             -1.3845951630038421e+01, -6.7776641228341683e+00,
             -5.8989505268633753e+00, -3.2573286056901138e+00 ]
         index: [ 69, 70, 72, 73, 74, 90, 91, 92, 94, 95 ]
      -
         sv_count: 12
         rho: -1.4161132753882708e+00
         alpha: [ 2.6798772982935337e+00, 6.0693052077416567e+01,
             1.0557441900963715e+01, 9.2947304682437903e-01,
             1.7968351947398645e+01, 2.3398197074307130e+00,
             -1.8676277642230339e+01, -3.7114530933215457e+00,
             -3.8348466024839545e+00, -1.2513611105669222e+01,
             -4.0133405797561736e+01, -1.6298421737060757e+01 ]
         index: [ 69, 70, 72, 73, 74, 75, 96, 97, 98, 99, 100, 101 ]
      -
         sv_count: 11
         rho: -2.0008626157857237e-01
         alpha: [ 6.4479534371307619e+00, 1.0589499584771787e+01,
             2.5432243131783436e+00, 4.0294326302442052e+00,
             7.5492110063753008e+00, 6.4943544000280984e-01,
             -2.9746586655692764e+00, -1.3591486357876951e+01,
             -3.0456641876168367e+00, -1.0588857778367469e+01,
             -1.6080894222726696e+00 ]
         index: [ 69, 70, 71, 72, 74, 75, 103, 104, 105, 106, 107 ]
      -
         sv_count: 6
         rho: -2.1038977574238826e+00
         alpha: [ 1.1675598127872016e+00, 6.2363252700204534e+01,
             2.1846103355088760e+00, -1.7292083768445257e+00,
             -1.4862144716560941e+00, -6.2500000000000000e+01 ]
         index: [ 69, 72, 74, 110, 111, 115 ]
      -
         sv_count: 9
         rho: 1.7883546249280404e+00
         alpha: [ 5.0276385125754315e+00, 5.2785715252383687e+00,
             1.1656151051581185e+01, 7.8301740836333114e+00,
             2.8331245961355451e+00, -1.8184845021386117e+01,
             -6.7895265445158728e+00, -4.1093224923904001e+00,
             -3.5419657108714540e+00 ]
         index: [ 76, 77, 78, 79, 80, 83, 85, 86, 87 ]
      -
         sv_count: 6
         rho: 4.2142144461959458e-01
         alpha: [ 1.4828591784091975e+01, 3.0113983294819651e+01,
             1.6956890122367860e+00, -2.5007648695702766e+01,
             -2.1197249730127549e-01, -2.1418642898144363e+01 ]
         index: [ 76, 78, 81, 90, 91, 95 ]
      -
         sv_count: 7
         rho: 3.4650842443306756e-01
         alpha: [ 3.2268825951656162e+00, 1.6438663178784276e+00,
             1.9289706246585692e+00, -5.6310227597618168e-01,
             -3.5637600463445325e+00, -2.3248580293142846e+00,
             -3.4799918606761449e-01 ]
         index: [ 76, 77, 78, 97, 99, 101, 102 ]
      -
         sv_count: 10
         rho: 5.6743583096304029e-01
         alpha: [ 1.1413700212727167e+00, 2.4467927673022971e+00,
             1.6442159182939327e+00, 4.9938909497981510e-01,
             1.6084454461282978e+00, -2.8989670940472663e+00,
             -1.5436106926589239e+00, -1.4214206391198598e+00,
             -4.4456213670030553e-01, -1.0316526854507038e+00 ]
         index: [ 76, 77, 78, 80, 81, 103, 104, 105, 106, 107 ]
      -
         sv_count: 6
         rho: -1.5166346840182901e-01
         alpha: [ 5.0223867308123191e+00, 2.8906513274095649e+00,
             1.0505809617203985e+00, -1.3404614827442640e+00,
             -3.1308833615335714e+00, -4.4922741756644458e+00 ]
         index: [ 76, 77, 78, 111, 113, 115 ]
      -
         sv_count: 10
         rho: -3.7234042790034744e-01
         alpha: [ 4.3582948968452717e-01, 2.2512856106570521e+01,
             5.9567085544188325e+00, 4.0745557499453131e+00,
             7.3299101482424089e-01, 1.1150160808608016e+00,
             -1.5677857174594301e+01, -4.8936681809837292e+00,
             -3.6880676926923308e+00, -1.0568363948033877e+01 ]
         index: [ 82, 83, 85, 86, 87, 88, 90, 91, 94, 95 ]
      -
         sv_count: 10
         rho: 3.0029474218706076e-01
         alpha: [ 2.5459391959936774e+01, 7.4641690375403460e+00,
             3.8496780226035798e+00, 6.2688557730163552e+00,
             -2.0141994625609833e+01, -4.4605899517191538e+00,
             -5.4194279233612788e+00, -3.6968765272728934e+00,
             -3.8376897767025704e+00, -5.4855159884313300e+00 ]
         index: [ 82, 83, 86, 88, 96, 97, 98, 99, 101, 102 ]
      -
         sv_count: 10
         rho: 2.1700794190533435e-01
         alpha: [ 1.1957982822654476e+01, 4.2864033875843726e+00,
             3.9122303365109978e-01, 3.7563907157320626e+00,
             1.5089988287052551e+00, -1.4513135956210024e+00,
             -3.8507109024629185e+00, -1.3923398470283481e+00,
             -1.2906109646028563e+01, -2.3005247971864349e+00 ]
         index: [ 82, 83, 85, 87, 88, 103, 104, 105, 106, 109 ]
      -
         sv_count: 5
         rho: -7.3440761337255589e-01
         alpha: [ 6.8997984579476623e-01, 6.2558579433426162e+00,
             2.4693863702420247e+00, -3.8131746020856792e+00,
             -5.6020495572937294e+00 ]
         index: [ 82, 83, 87, 111, 113 ]
      -
         sv_count: 6
         rho: 1.9271289736760087e+00
         alpha: [ 4.7363124819953320e+01, 1.4517650753797084e+00,
             5.5413554146469339e+00, -3.2318425024141582e+00,
             -3.9970982059884982e+01, -1.1153420747680826e+01 ]
         index: [ 91, 92, 95, 98, 101, 102 ]
      -
         sv_count: 8
         rho: 6.1256796071785280e-01
         alpha: [ 1.0025918166686548e+01, 1.6352574713354597e+00,
             6.0851014444657070e-01, 3.2224772719386596e+00,
             -2.3064806120240027e+00, -8.5237865987257333e+00,
             -1.3558371318602447e+00, -3.3060587117972622e+00 ]
         index: [ 91, 92, 93, 95, 103, 104, 106, 107 ]
      -
         sv_count: 5
         rho: -2.9355744163401036e+00
         alpha: [ 5.8878209135344299e+01, 9.4417253356679858e+00,
             -1.2003107258176224e+00, -4.6196237451946551e+00,
             -6.2500000000000000e+01 ]
         index: [ 94, 95, 111, 112, 113 ]
      -
         sv_count: 9
         rho: -1.3520050181750168e-01
         alpha: [ 4.1200069088793301e+00, 2.0098750306828679e+00,
             4.8890581204549024e+00, 6.2695369326776165e+00,
             1.0659378862908707e+01, -3.2160857078437108e+00,
             -1.0410544830511554e+01, -1.1284255408207791e+01,
             -3.0369699090403675e+00 ]
         index: [ 96, 97, 98, 99, 101, 103, 104, 106, 107 ]
      -
         sv_count: 5
         rho: -8.8253742281986125e-01
         alpha: [ 5.0562014665664785e+00, 1.5422571198250361e+01,
             -2.3802969705140318e+00, -1.4220323600128012e+01,
             -3.8781520941747964e+00 ]
         index: [ 101, 102, 111, 112, 115 ]
      -
         sv_count: 7
         rho: -6.4378504994793517e-01
         alpha: [ 5.8801704070235941e+00, 1.5433377396554511e+00,
             1.3745389913927691e-01, 3.5981335995737411e+00,
             -5.6497779875704062e+00, -2.9610725558445994e-01,
             -5.2132104022371957e+00 ]
         index: [ 103, 104, 106, 107, 111, 113, 115 ]
