%YAML:1.0
my_svm: !!opencv-ml-svm
   svm_type: C_SVC
   kernel: { type:RBF, gamma:5.0000000000000000e-01 }
   C: 1.
   term_criteria: { epsilon:2.2204460492503131e-16, iterations:100 }
   var_all: 10
   var_count: 10
   class_count: 17
   class_labels: !!opencv-matrix
      rows: 1
      cols: 17
      dt: i
      data: [ 1, 2, 3, 4, 5, 6, 7, 8, 9, 10, 11, 12, 13, 14, 15, 16, 17 ]
   sv_total: 47
   support_vectors:
      - [ 0., 4.75409806e-01, 4.91803251e-02, 0., 0., 8.03278625e-01, 0.,
          2.78688520e-01, 1.47540972e-01, 1.63934410e-01 ]
      - [ 1.00645080e-01, 4.02580321e-01, 0., 3.18709403e-01, 0.,
          8.38708997e-01, 0., 1.50967613e-01, 0., 0. ]
      - [ 0., 4.70906883e-01, 0., 0., 0., 8.17161977e-01, 0.,
          3.32404852e-01, 0., 0. ]
      - [ 0., 4.18486953e-01, 1.88319132e-01, 0., 2.30167836e-01,
          2.09243484e-02, 0., 8.36973906e-01, 1.88319132e-01, 0. ]
      - [ 0., 8.13007653e-01, 3.45960706e-02, 5.70835173e-01, 0.,
          3.45960706e-02, 0., 0., 0., 1.03788212e-01 ]
      - [ 2.53204048e-01, 2.33726829e-01, 3.89544696e-01, 0., 0.,
          2.14249581e-01, 0., 7.98566639e-01, 0., 2.14249581e-01 ]
      - [ 8.06805864e-02, 0., 4.23573077e-01, 0., 0., 2.82382041e-01, 0.,
          8.06805864e-02, 8.47146153e-01, 1.00850731e-01 ]
      - [ 0., 8.05977821e-01, 1.23996586e-02, 0., 0., 8.67976099e-02, 0.,
          2.47993171e-02, 5.82783937e-01, 4.95986342e-02 ]
      - [ 0., 5.10827959e-01, 1.53248385e-01, 0., 1.70275979e-02,
          1.53248385e-01, 0., 5.10827936e-02, 7.49214292e-01,
          3.57579559e-01 ]
      - [ 7.49429047e-01, 7.31150284e-02, 0., 0., 0., 0., 0.,
          6.58035278e-01, 0., 0. ]
      - [ 0., 6.96106136e-01, 0., 1.83185823e-02, 0., 3.29734474e-01,
          5.67876041e-01, 2.74778724e-01, 9.15929079e-02, 0. ]
      - [ 0., 4.98317569e-01, 2.57196158e-01, 0., 0., 8.19812775e-01, 0.,
          9.64485556e-02, 0., 6.42990395e-02 ]
      - [ 1.37665287e-01, 5.50661147e-01, 0., 0., 0., 1.37665287e-01, 0.,
          8.08783531e-01, 0., 6.88326433e-02 ]
      - [ 0., 2.84438789e-01, 2.99409255e-02, 0., 0., 0., 0.,
          4.64084357e-01, 0., 8.38345885e-01 ]
      - [ 9.05060768e-02, 6.69744968e-01, 1.81012154e-01, 0., 0.,
          5.43036461e-02, 0., 6.33542538e-01, 0., 3.25821877e-01 ]
      - [ 2.58760154e-02, 8.66846502e-01, 4.39892262e-01, 0., 0.,
          2.19946131e-01, 0., 7.76280463e-02, 0., 0. ]
      - [ 2.71518230e-01, 7.78352261e-01, 4.16327953e-01, 0., 0.,
          1.26708508e-01, 0., 3.62024307e-01, 0., 0. ]
      - [ 1.87225938e-01, 9.36129749e-01, 1.09215133e-01, 0., 0.,
          2.02828109e-01, 0., 7.80108124e-02, 0., 1.71623781e-01 ]
      - [ 0., 7.60549754e-02, 0., 0., 0., 0., 0., 9.27870691e-01, 0.,
          3.65063876e-01 ]
      - [ 0., 8.70480895e-01, 0., 4.91400510e-01, 0., 0., 0.,
          2.80800294e-02, 0., 0. ]
      - [ 4.65368032e-02, 3.02489221e-01, 0., 0., 2.55952418e-01, 0., 0.,
          0., 5.35173237e-01, 7.44588852e-01 ]
      - [ 1.64398998e-01, 2.19198659e-01, 3.28797996e-01, 0., 0.,
          2.19198659e-01, 0., 0., 8.76794636e-01, 0. ]
      - [ 1.96442872e-01, 8.73079449e-02, 1.96442872e-01, 8.51252437e-01,
          0., 4.36539710e-01, 0., 0., 0., 0. ]
      - [ 0., 6.31334186e-01, 1.68355778e-01, 6.52378619e-01, 0.,
          3.78800511e-01, 0., 6.31334186e-02, 0., 0. ]
      - [ 0., 2.62474388e-01, 6.93682253e-01, 0., 0., 0., 0.,
          2.99970716e-01, 0., 5.99941432e-01 ]
      - [ 0., 1.61242485e-01, 3.22484970e-01, 0., 0., 1.17267266e-01, 0.,
          0., 5.86336330e-02, 9.23479736e-01 ]
      - [ 0., 0., 8.53507638e-01, 0., 0., 7.48690888e-02, 0., 0.,
          2.24607274e-01, 4.64188367e-01 ]
      - [ 0., 2.05552593e-01, 2.16371156e-02, 5.40927872e-02,
          1.08185578e-02, 7.57299066e-02, 9.73670185e-01, 0.,
          2.16371156e-02, 0. ]
      - [ 6.30843878e-01, 1.23091489e-01, 1.07705057e-01, 0., 0.,
          7.07776070e-01, 6.15457445e-02, 0., 2.61569411e-01,
          4.61593084e-02 ]
      - [ 1.69103332e-02, 0., 3.38206664e-02, 0., 9.13158000e-01, 0., 0.,
          0., 4.05847996e-01, 0. ]
      - [ 3.04926243e-02, 9.14778709e-02, 1.21970497e-01, 0., 0.,
          4.11650419e-01, 6.86084032e-01, 0., 5.79359889e-01, 0. ]
      - [ 0., 1.39781550e-01, 8.38689357e-02, 9.64492738e-01,
          8.38689357e-02, 5.59126213e-02, 0., 0., 1.81716025e-01, 0. ]
      - [ 0., 1.33704334e-01, 6.38809562e-01, 7.27945805e-01, 0.,
          2.97120735e-02, 0., 0., 2.07984507e-01, 0. ]
      - [ 0., 5.85143119e-02, 6.58286035e-01, 7.02171743e-01, 0.,
          2.92571560e-02, 0., 0., 2.63314396e-01, 0. ]
      - [ 0., 0., 4.01965231e-01, 8.03930461e-01, 0., 3.84488463e-01, 0.,
          0., 1.57290742e-01, 1.39813989e-01 ]
      - [ 8.70455578e-02, 1.24350794e-01, 0., 1.61656037e-01, 0.,
          9.69936192e-01, 0., 0., 9.94806364e-02, 1.24350796e-02 ]
      - [ 1.96743995e-01, 0., 0., 4.84292924e-01, 1.51341539e-02,
          9.08049196e-02, 0., 0., 8.47512603e-01, 0. ]
      - [ 0., 0., 3.40154558e-01, 8.23532104e-01, 0., 1.96931586e-01,
          1.79028716e-02, 0., 1.96931586e-01, 3.58057439e-01 ]
      - [ 4.75669801e-01, 7.23845363e-01, 2.06812948e-01, 0., 0.,
          4.54988509e-01, 0., 0., 0., 0. ]
      - [ 5.30475974e-01, 6.36571199e-02, 4.03161734e-01, 6.36571199e-02,
          0., 7.00228274e-01, 0., 0., 1.69752315e-01, 1.69752315e-01 ]
      - [ 8.75689745e-01, 7.72667378e-02, 1.03022322e-01, 0., 0.,
          1.15900114e-01, 0., 0., 0., 4.50722665e-01 ]
      - [ 8.25376689e-01, 0., 3.39861006e-01, 0., 0., 1.61838561e-01, 0.,
          0., 0., 4.20780271e-01 ]
      - [ 7.84899369e-02, 3.13959755e-02, 6.27919510e-02, 5.96523523e-01,
          0., 5.18033624e-01, 0., 5.96523523e-01, 0., 9.41879302e-02 ]
      - [ 2.04199687e-01, 9.42460075e-02, 0., 0., 0., 0., 0.,
          3.45568687e-01, 0., 9.11044717e-01 ]
      - [ 1.28374044e-02, 7.70244300e-02, 5.26333570e-01, 2.56748088e-02,
          0., 8.34431291e-01, 0., 0., 0., 1.41211450e-01 ]
      - [ 0., 0., 8.41244459e-01, 4.38910156e-01, 0., 3.10894698e-01, 0.,
          0., 5.48637696e-02, 0. ]
      - [ 3.74935091e-01, 0., 3.94668505e-02, 1.97334252e-02,
          3.94668505e-02, 7.69603610e-01, 1.97334252e-02, 0.,
          5.13069034e-01, 0. ]
   decision_functions:
      -
         sv_count: 6
         rho: 2.3649075627326965e-01
         alpha: [ 1., 1., 1., -1., -1., -1. ]
         index: [ 0, 1, 2, 3, 4, 5 ]
      -
         sv_count: 6
         rho: 1.5738890933007965e-01
         alpha: [ 1., 9.3711826307065005e-01, 7.3524075434211400e-01,
             -1., -1., -6.7235901741276405e-01 ]
         index: [ 0, 1, 2, 6, 7, 8 ]
      -
         sv_count: 6
         rho: 1.5994125604629517e-01
         alpha: [ 1., 1., 1., -1., -1., -1. ]
         index: [ 0, 1, 2, 9, 10, 11 ]
      -
         sv_count: 6
         rho: 1.3895325362682343e-01
         alpha: [ 1., 8.0715342274218682e-01, 1., -1.,
             -8.0715342274218682e-01, -1. ]
         index: [ 0, 1, 2, 12, 13, 14 ]
      -
         sv_count: 6
         rho: 3.3695995807647705e-02
         alpha: [ 1., 1., 1., -1., -1., -1. ]
         index: [ 0, 1, 2, 15, 16, 17 ]
      -
         sv_count: 5
         rho: -1.5760999857384447e-01
         alpha: [ 9.8654654997952551e-01, 7.3083320722024470e-01,
             2.8262024280022963e-01, -1., -1. ]
         index: [ 0, 1, 2, 18, 19 ]
      -
         sv_count: 5
         rho: -4.0193200111388744e-03
         alpha: [ 1., 9.0390127026747913e-01, 9.6098729732520913e-02,
             -1., -1. ]
         index: [ 0, 1, 2, 20, 21 ]
      -
         sv_count: 6
         rho: 3.4036719799041748e-01
         alpha: [ 1., 1., 1., -1., -1., -1. ]
         index: [ 0, 1, 2, 22, 23, 24 ]
      -
         sv_count: 6
         rho: 3.7021610140800476e-01
         alpha: [ 1., 1., 5.5350226594434970e-01, -1.,
             -5.5350226594434970e-01, -1. ]
         index: [ 0, 1, 2, 25, 26, 27 ]
      -
         sv_count: 6
         rho: 2.7278077602386475e-01
         alpha: [ 1., 1., 9.5617678194979960e-01, -1.,
             -9.5617678194979960e-01, -1. ]
         index: [ 0, 1, 2, 28, 29, 30 ]
      -
         sv_count: 6
         rho: 9.0647548437118530e-02
         alpha: [ 1., 1., 3.5931987850122979e-03, -1., -1.,
             -3.5931987850122979e-03 ]
         index: [ 0, 1, 2, 31, 32, 33 ]
      -
         sv_count: 6
         rho: 1.6668923199176788e-01
         alpha: [ 1., 1., 1., -1., -1., -1. ]
         index: [ 0, 1, 2, 34, 35, 36 ]
      -
         sv_count: 4
         rho: -3.0193886160850525e-01
         alpha: [ 1., 1., -1., -1. ]
         index: [ 0, 1, 37, 38 ]
      -
         sv_count: 6
         rho: -1.4421939849853516e-02
         alpha: [ 1., 1., 3.0275470344166600e-01, -1., -1.,
             -3.0275470344166600e-01 ]
         index: [ 0, 1, 2, 39, 40, 41 ]
      -
         sv_count: 4
         rho: -2.4346736073493958e-01
         alpha: [ 1., 1., -1., -1. ]
         index: [ 0, 1, 42, 43 ]
      -
         sv_count: 6
         rho: 1.2503480911254883e-01
         alpha: [ 1., 1., 1., -1., -1., -1. ]
         index: [ 0, 1, 2, 44, 45, 46 ]
      -
         sv_count: 6
         rho: -1.0320147871971130e-01
         alpha: [ 1., 1., 1., -1., -1., -1. ]
         index: [ 3, 4, 5, 6, 7, 8 ]
      -
         sv_count: 6
         rho: 7.4816644191741943e-02
         alpha: [ 1., 1., 1., -1., -1., -1. ]
         index: [ 3, 4, 5, 9, 10, 11 ]
      -
         sv_count: 6
         rho: -2.0349508523941040e-01
         alpha: [ 1., 1., 1., -1., -1., -1. ]
         index: [ 3, 4, 5, 12, 13, 14 ]
      -
         sv_count: 6
         rho: -2.2402858734130859e-01
         alpha: [ 1., 1., 1., -1., -1., -1. ]
         index: [ 3, 4, 5, 15, 16, 17 ]
      -
         sv_count: 5
         rho: -9.1096109120899416e-01
         alpha: [ 5.1568148032672378e-01, 9.8188509414599512e-01,
             5.0243342552728110e-01, -1., -1. ]
         index: [ 3, 4, 5, 18, 19 ]
      -
         sv_count: 5
         rho: -5.1220905144259532e-01
         alpha: [ 5.3941333882456588e-01, 9.0528173143221990e-01,
             5.5530492974321422e-01, -1., -1. ]
         index: [ 3, 4, 5, 20, 21 ]
      -
         sv_count: 6
         rho: 5.7983621954917908e-02
         alpha: [ 1., 1., 1., -1., -1., -1. ]
         index: [ 3, 4, 5, 22, 23, 24 ]
      -
         sv_count: 6
         rho: 1.9099926948547363e-01
         alpha: [ 1., 1., 1., -1., -1., -1. ]
         index: [ 3, 4, 5, 25, 26, 27 ]
      -
         sv_count: 6
         rho: 1.0373081266880035e-01
         alpha: [ 1., 1., 1., -1., -1., -1. ]
         index: [ 3, 4, 5, 28, 29, 30 ]
      -
         sv_count: 6
         rho: -1.1486613750457762e-01
         alpha: [ 6.9646004537963957e-01, 1., 1., -1., -1.,
             -6.9646004537963957e-01 ]
         index: [ 3, 4, 5, 31, 32, 33 ]
      -
         sv_count: 6
         rho: 1.5941305458545685e-01
         alpha: [ 1., 1., 1., -1., -1., -1. ]
         index: [ 3, 4, 5, 34, 35, 36 ]
      -
         sv_count: 4
         rho: -5.7548293471336365e-01
         alpha: [ 1., 1., -1., -1. ]
         index: [ 4, 5, 37, 38 ]
      -
         sv_count: 6
         rho: -1.0739351809024811e-01
         alpha: [ 5.4694848611779145e-01, 1., 1., -1., -1.,
             -5.4694848611779145e-01 ]
         index: [ 3, 4, 5, 39, 40, 41 ]
      -
         sv_count: 5
         rho: -6.4078107476234425e-01
         alpha: [ 2.5479824655440836e-01, 7.4520175344559170e-01, 1.,
             -1., -1. ]
         index: [ 3, 4, 5, 42, 43 ]
      -
         sv_count: 6
         rho: 2.1035626530647278e-02
         alpha: [ 8.7543101094707743e-01, 1., 1.,
             -8.7543101094707743e-01, -1., -1. ]
         index: [ 3, 4, 5, 44, 45, 46 ]
      -
         sv_count: 6
         rho: 2.2864654660224915e-01
         alpha: [ 1., 1., 1., -1., -1., -1. ]
         index: [ 6, 7, 8, 9, 10, 11 ]
      -
         sv_count: 6
         rho: 5.1700249314308167e-02
         alpha: [ 8.2869392486815596e-01, 1., 1.,
             -8.2869392486815596e-01, -1., -1. ]
         index: [ 6, 7, 8, 12, 13, 14 ]
      -
         sv_count: 6
         rho: 1.6648739576339722e-02
         alpha: [ 9.3234698759917434e-01, 1., 1., -1.,
             -9.3234698759917434e-01, -1. ]
         index: [ 6, 7, 8, 15, 16, 17 ]
      -
         sv_count: 5
         rho: -2.4611909687519079e-01
         alpha: [ 5.3155789951119647e-01, 1., 4.6844210048880347e-01,
             -1., -1. ]
         index: [ 6, 7, 8, 18, 19 ]
      -
         sv_count: 5
         rho: -8.3962741494178772e-01
         alpha: [ 8.3957503579890014e-01, 1.6042496420109997e-01, 1.,
             -1., -1. ]
         index: [ 6, 7, 8, 20, 21 ]
      -
         sv_count: 6
         rho: 8.2170873880386353e-02
         alpha: [ 1., 1., 9.2134550339347498e-01,
             -9.2134550339347498e-01, -1., -1. ]
         index: [ 6, 7, 8, 22, 23, 24 ]
      -
         sv_count: 6
         rho: 3.0613580346107483e-01
         alpha: [ 1., 1., 1., -1., -1., -1. ]
         index: [ 6, 7, 8, 25, 26, 27 ]
      -
         sv_count: 6
         rho: 3.0510620772838593e-01
         alpha: [ 1., 1., 1., -1., -1., -1. ]
         index: [ 6, 7, 8, 28, 29, 30 ]
      -
         sv_count: 6
         rho: -4.9107675802789574e-02
         alpha: [ 1., 1., 4.9218886419236224e-01,
             -8.2330314779160119e-01, -6.6888571640076100e-01, -1. ]
         index: [ 6, 7, 8, 31, 32, 33 ]
      -
         sv_count: 6
         rho: 1.1528776586055756e-01
         alpha: [ 1., 1., 1., -1., -1., -1. ]
         index: [ 6, 7, 8, 34, 35, 36 ]
      -
         sv_count: 5
         rho: -4.1037578880786896e-01
         alpha: [ 9.4392108542309328e-01, 1., 5.6078914576906704e-02,
             -1., -1. ]
         index: [ 6, 7, 8, 37, 38 ]
      -
         sv_count: 6
         rho: -6.8013495058310169e-02
         alpha: [ 1., 7.2409477458325811e-01, 6.7588885327874793e-01,
             -1., -1., -3.9998362786200603e-01 ]
         index: [ 6, 7, 8, 39, 40, 41 ]
      -
         sv_count: 5
         rho: -2.0921329480063022e-01
         alpha: [ 8.6145669449165518e-01, 5.5326122549936385e-01,
             5.8528208000898108e-01, -1., -1. ]
         index: [ 6, 7, 8, 42, 43 ]
      -
         sv_count: 6
         rho: 1.0382594168186188e-01
         alpha: [ 1., 8.9686334221268516e-01, 1.,
             -8.9686334221268516e-01, -1., -1. ]
         index: [ 6, 7, 8, 44, 45, 46 ]
      -
         sv_count: 6
         rho: -2.6283276081085205e-01
         alpha: [ 1., 1., 1., -1., -1., -1. ]
         index: [ 9, 10, 11, 12, 13, 14 ]
      -
         sv_count: 6
         rho: -2.7528043091297150e-01
         alpha: [ 1., 1., 1., -1., -1., -1. ]
         index: [ 9, 10, 11, 15, 16, 17 ]
      -
         sv_count: 5
         rho: -7.3241177733640572e-01
         alpha: [ 8.2194221189836392e-01, 8.2614570680233224e-01,
             3.5191208129930390e-01, -1., -1. ]
         index: [ 9, 10, 11, 18, 19 ]
      -
         sv_count: 5
         rho: -5.6184499465153459e-01
         alpha: [ 6.8075899039231524e-01, 5.8275189380518455e-01,
             7.3648911580250032e-01, -1., -1. ]
         index: [ 9, 10, 11, 20, 21 ]
      -
         sv_count: 6
         rho: -1.0445410013198853e-01
         alpha: [ 1., 1., 1., -1., -1., -1. ]
         index: [ 9, 10, 11, 22, 23, 24 ]
      -
         sv_count: 6
         rho: -6.3712656497955322e-02
         alpha: [ 1., 1., 1., -1., -1., -1. ]
         index: [ 9, 10, 11, 25, 26, 27 ]
      -
         sv_count: 6
         rho: -1.0539561510086060e-01
         alpha: [ 1., 1., 1., -1., -1., -1. ]
         index: [ 9, 10, 11, 28, 29, 30 ]
      -
         sv_count: 6
         rho: -3.1421197862061012e-01
         alpha: [ 9.4206241224974607e-01, 6.2473053841260329e-01, 1.,
             -1., -1., -5.6679295066234936e-01 ]
         index: [ 9, 10, 11, 31, 32, 33 ]
      -
         sv_count: 6
         rho: -6.8825811147689819e-02
         alpha: [ 1., 1., 1., -1., -1., -1. ]
         index: [ 9, 10, 11, 34, 35, 36 ]
      -
         sv_count: 5
         rho: -7.3432229459285736e-01
         alpha: [ 5.9161291782034653e-01, 4.0838708217965347e-01, 1.,
             -1., -1. ]
         index: [ 9, 10, 11, 37, 38 ]
      -
         sv_count: 6
         rho: -1.6551886498928070e-01
         alpha: [ 1., 9.2543922147604984e-01, 1., -1., -1.,
             -9.2543922147604984e-01 ]
         index: [ 9, 10, 11, 39, 40, 41 ]
      -
         sv_count: 5
         rho: -7.0926280403579878e-01
         alpha: [ 9.8119324002167563e-01, 2.8504470947970911e-01,
             7.3376205049861509e-01, -1., -1. ]
         index: [ 9, 10, 11, 42, 43 ]
      -
         sv_count: 6
         rho: -7.2422906756401062e-02
         alpha: [ 1., 1., 1., -1., -1., -1. ]
         index: [ 9, 10, 11, 44, 45, 46 ]
      -
         sv_count: 6
         rho: -5.2435725927352905e-02
         alpha: [ 1., 1., 1., -1., -1., -1. ]
         index: [ 12, 13, 14, 15, 16, 17 ]
      -
         sv_count: 5
         rho: -6.6974142193794250e-01
         alpha: [ 1., 6.6588418432467700e-01, 3.3411581567532300e-01,
             -1., -1. ]
         index: [ 12, 13, 14, 18, 19 ]
      -
         sv_count: 5
         rho: -2.8004044294357300e-01
         alpha: [ 3.8106774490888562e-01, 1., 6.1893225509111438e-01,
             -1., -1. ]
         index: [ 12, 13, 14, 20, 21 ]
      -
         sv_count: 6
         rho: -4.5105665922164917e-03
         alpha: [ 9.4622882341560011e-01, 1., 1.,
             -9.4622882341560011e-01, -1., -1. ]
         index: [ 12, 13, 14, 22, 23, 24 ]
      -
         sv_count: 6
         rho: 3.2882909476757050e-01
         alpha: [ 9.5848869645766521e-01, 1., 1., -1.,
             -9.5848869645766521e-01, -1. ]
         index: [ 12, 13, 14, 25, 26, 27 ]
      -
         sv_count: 6
         rho: 2.8127270751806305e-01
         alpha: [ 1., 1., 6.6654556768892592e-01, -1.,
             -9.5526480004627978e-01, -7.1128076764264614e-01 ]
         index: [ 12, 13, 14, 28, 29, 30 ]
      -
         sv_count: 6
         rho: -7.9322648531352527e-02
         alpha: [ 8.9303834603717325e-01, 9.2612972720263553e-01,
             2.6098476139163368e-01, -1., -1., -8.0152834631442682e-02 ]
         index: [ 12, 13, 14, 31, 32, 33 ]
      -
         sv_count: 6
         rho: 1.9628610252018874e-01
         alpha: [ 1., 1., 5.0519833581611551e-01,
             -6.7572344720206978e-01, -1., -8.2947488861404595e-01 ]
         index: [ 12, 13, 14, 34, 35, 36 ]
      -
         sv_count: 5
         rho: -3.0187171958346987e-01
         alpha: [ 5.8880292148066404e-01, 7.1357509026755095e-01,
             6.9762198825178501e-01, -1., -1. ]
         index: [ 12, 13, 14, 37, 38 ]
      -
         sv_count: 6
         rho: -2.3380492494080543e-02
         alpha: [ 9.8560500796362238e-01, 1., 4.7069988632116155e-01,
             -1., -1., -4.5630489428478382e-01 ]
         index: [ 12, 13, 14, 39, 40, 41 ]
      -
         sv_count: 4
         rho: -5.5281618237495422e-01
         alpha: [ 1., 1., -1., -1. ]
         index: [ 12, 13, 42, 43 ]
      -
         sv_count: 6
         rho: 1.2882288599013322e-01
         alpha: [ 1., 1., 4.7103270036460482e-01,
             -5.4033595639058563e-01, -9.3069674397401991e-01, -1. ]
         index: [ 12, 13, 14, 44, 45, 46 ]
      -
         sv_count: 4
         rho: -3.7794964015483856e-01
         alpha: [ 1., 1., -1., -1. ]
         index: [ 16, 17, 18, 19 ]
      -
         sv_count: 5
         rho: -1.5075543522834778e-01
         alpha: [ 3.5913617020943300e-01, 6.4086382979056700e-01, 1.,
             -1., -1. ]
         index: [ 15, 16, 17, 20, 21 ]
      -
         sv_count: 6
         rho: 9.6032634377479553e-02
         alpha: [ 1., 1., 1., -1., -1., -1. ]
         index: [ 15, 16, 17, 22, 23, 24 ]
      -
         sv_count: 6
         rho: 3.7196038663387299e-01
         alpha: [ 1., 1., 9.9392593359194703e-01,
             -9.9392593359194703e-01, -1., -1. ]
         index: [ 15, 16, 17, 25, 26, 27 ]
      -
         sv_count: 6
         rho: 3.3467107029124032e-01
         alpha: [ 7.1754443071733121e-01, 1., 1., -1.,
             -8.6500839442858735e-01, -8.5253603628874397e-01 ]
         index: [ 15, 16, 17, 28, 29, 30 ]
      -
         sv_count: 6
         rho: 3.8347417103584837e-02
         alpha: [ 1., 1., 1.8696459305874752e-01,
             -5.9828019894976614e-01, -1., -5.8868439410898132e-01 ]
         index: [ 15, 16, 17, 31, 32, 33 ]
      -
         sv_count: 6
         rho: 2.4670720536343543e-01
         alpha: [ 9.3347320863433336e-01, 7.2085643278228562e-01,
             8.9647310928990409e-01, -8.2434756967964917e-01, -1.,
             -7.2645518102687379e-01 ]
         index: [ 15, 16, 17, 34, 35, 36 ]
      -
         sv_count: 5
         rho: -4.1937918218323605e-01
         alpha: [ 3.7306979152914771e-01, 6.8515877166560102e-01,
             9.4177143680525099e-01, -1., -1. ]
         index: [ 15, 16, 17, 37, 38 ]
      -
         sv_count: 6
         rho: 7.2338894009590232e-02
         alpha: [ 3.8475904349614892e-01, 1., 1., -1., -1.,
             -3.8475904349614887e-01 ]
         index: [ 15, 16, 17, 39, 40, 41 ]
      -
         sv_count: 4
         rho: -5.0104662775993347e-02
         alpha: [ 1., 1., -1., -1. ]
         index: [ 16, 17, 42, 43 ]
      -
         sv_count: 6
         rho: 2.6341858829221143e-01
         alpha: [ 1., 1., 7.3260070341440575e-01,
             -8.9855970989183598e-01, -1., -8.3404099352256977e-01 ]
         index: [ 15, 16, 17, 44, 45, 46 ]
      -
         sv_count: 4
         rho: -1.3933688402175903e-01
         alpha: [ 1., 1., -1., -1. ]
         index: [ 18, 19, 20, 21 ]
      -
         sv_count: 5
         rho: 6.5102991461753856e-01
         alpha: [ 1., 1., -1.1427954641066543e-01, -1.,
             -8.8572045358933449e-01 ]
         index: [ 18, 19, 22, 23, 24 ]
      -
         sv_count: 5
         rho: 5.3515444318169247e-01
         alpha: [ 1., 1., -8.5711668754343706e-01,
             -2.9635089518065788e-01, -8.4653241727590489e-01 ]
         index: [ 18, 19, 25, 26, 27 ]
      -
         sv_count: 5
         rho: 4.3441998574078439e-01
         alpha: [ 1., 1., -6.9890823326635032e-01,
             -7.5683551770209290e-01, -5.4425624903155678e-01 ]
         index: [ 18, 19, 28, 29, 30 ]
      -
         sv_count: 4
         rho: 1.2143130600452423e-01
         alpha: [ 1., 1., -1., -1. ]
         index: [ 18, 19, 31, 32 ]
      -
         sv_count: 5
         rho: 4.1977204204379232e-01
         alpha: [ 1., 1., -6.8243812323758524e-01,
             -6.5717765031275133e-01, -6.6038422644966344e-01 ]
         index: [ 18, 19, 34, 35, 36 ]
      -
         sv_count: 4
         rho: 6.7217141389846802e-02
         alpha: [ 1., 1., -1., -1. ]
         index: [ 18, 19, 37, 38 ]
      -
         sv_count: 4
         rho: 6.0144707560539246e-02
         alpha: [ 1., 1., -1., -1. ]
         index: [ 18, 19, 39, 40 ]
      -
         sv_count: 4
         rho: 4.9016043543815613e-02
         alpha: [ 1., 1., -1., -1. ]
         index: [ 18, 19, 42, 43 ]
      -
         sv_count: 5
         rho: 2.7879421412944783e-01
         alpha: [ 1., 1., -1.4403806076201331e-01, -1.,
             -8.5596193923798680e-01 ]
         index: [ 18, 19, 44, 45, 46 ]
      -
         sv_count: 5
         rho: 5.0579547882080078e-01
         alpha: [ 1., 1., -4.1744589329009640e-01,
             -5.8255410670990360e-01, -1. ]
         index: [ 20, 21, 22, 23, 24 ]
      -
         sv_count: 5
         rho: 7.1508262173401105e-01
         alpha: [ 1., 1., -8.6245770500767815e-01,
             -6.2371064786215358e-01, -5.1383164713016827e-01 ]
         index: [ 20, 21, 25, 26, 27 ]
      -
         sv_count: 5
         rho: 8.1448928234997686e-01
         alpha: [ 1., 1., -5.2085715210819805e-01,
             -7.2904528864806262e-01, -7.5009755924373933e-01 ]
         index: [ 20, 21, 28, 29, 30 ]
      -
         sv_count: 5
         rho: 1.2590695917606357e-01
         alpha: [ 1., 1., -7.5558305798738334e-01,
             -2.4441694201261663e-01, -1. ]
         index: [ 20, 21, 31, 32, 33 ]
      -
         sv_count: 5
         rho: 5.7599596679210663e-01
         alpha: [ 1., 1., -3.4380197666377332e-01,
             -6.5619802333622668e-01, -1. ]
         index: [ 20, 21, 34, 35, 36 ]
      -
         sv_count: 4
         rho: 1.0964867472648621e-01
         alpha: [ 1., 1., -1., -1. ]
         index: [ 20, 21, 37, 38 ]
      -
         sv_count: 4
         rho: 2.7361001074314117e-01
         alpha: [ 1., 1., -1., -1. ]
         index: [ 20, 21, 39, 40 ]
      -
         sv_count: 4
         rho: 7.1352750062942505e-02
         alpha: [ 1., 1., -1., -1. ]
         index: [ 20, 21, 42, 43 ]
      -
         sv_count: 5
         rho: 4.5388719439506531e-01
         alpha: [ 1., 1., -1.2586228758310669e-01,
             -8.7413771241689331e-01, -1. ]
         index: [ 20, 21, 44, 45, 46 ]
      -
         sv_count: 6
         rho: 2.3626615107059479e-01
         alpha: [ 1., 1., 1., -1., -1., -1. ]
         index: [ 22, 23, 24, 25, 26, 27 ]
      -
         sv_count: 6
         rho: 9.7314745187759399e-02
         alpha: [ 1., 1., 1., -1., -1., -1. ]
         index: [ 22, 23, 24, 28, 29, 30 ]
      -
         sv_count: 6
         rho: -2.0924177765846252e-01
         alpha: [ 1., 1., 1., -1., -1., -1. ]
         index: [ 22, 23, 24, 31, 32, 33 ]
      -
         sv_count: 6
         rho: 8.3643794059753418e-03
         alpha: [ 1., 1., 1., -1., -1., -1. ]
         index: [ 22, 23, 24, 34, 35, 36 ]
      -
         sv_count: 5
         rho: -8.5531287371629627e-01
         alpha: [ 7.5583334581973904e-01, 6.6568260799090140e-01,
             5.7848404618935945e-01, -1., -1. ]
         index: [ 22, 23, 24, 37, 38 ]
      -
         sv_count: 6
         rho: -1.6597916185855863e-01
         alpha: [ 1., 8.1764663760835232e-01, 1., -1.,
             -8.1764663760835232e-01, -1. ]
         index: [ 22, 23, 24, 39, 40, 41 ]
      -
         sv_count: 5
         rho: -7.6384168863296509e-01
         alpha: [ 8.9088971290652841e-01, 1.0911028709347156e-01, 1.,
             -1., -1. ]
         index: [ 22, 23, 24, 42, 43 ]
      -
         sv_count: 6
         rho: -8.6569115519523621e-02
         alpha: [ 1., 1., 1., -1., -1., -1. ]
         index: [ 22, 23, 24, 44, 45, 46 ]
      -
         sv_count: 6
         rho: 9.2734426259994507e-02
         alpha: [ 1., 1., 1., -1., -1., -1. ]
         index: [ 25, 26, 27, 28, 29, 30 ]
      -
         sv_count: 6
         rho: -3.0712100863456726e-01
         alpha: [ 7.9599448838867204e-01, 1., 1.,
             -7.9599448838867204e-01, -1., -1. ]
         index: [ 25, 26, 27, 31, 32, 33 ]
      -
         sv_count: 6
         rho: -3.5919338464736938e-02
         alpha: [ 1., 1., 1., -1., -1., -1. ]
         index: [ 25, 26, 27, 34, 35, 36 ]
      -
         sv_count: 5
         rho: -6.5032752828387885e-01
         alpha: [ 6.1378872305123178e-01, 6.8921874684027262e-01,
             6.9699253010849549e-01, -1., -1. ]
         index: [ 25, 26, 27, 37, 38 ]
      -
         sv_count: 6
         rho: -3.0114582180976868e-01
         alpha: [ 1., 1., 1., -1., -1., -1. ]
         index: [ 25, 26, 27, 39, 40, 41 ]
      -
         sv_count: 5
         rho: -6.1529076099395752e-01
         alpha: [ 1., 3.6828855008078998e-01, 6.3171144991921002e-01,
             -1., -1. ]
         index: [ 25, 26, 27, 42, 43 ]
      -
         sv_count: 6
         rho: -1.3662806153297424e-01
         alpha: [ 1., 1., 1., -1., -1., -1. ]
         index: [ 25, 26, 27, 44, 45, 46 ]
      -
         sv_count: 6
         rho: -3.6142255668252526e-01
         alpha: [ 8.2639232714635391e-01, 1., 8.8067589144728875e-01,
             -1., -7.0706821859364277e-01, -1. ]
         index: [ 28, 29, 30, 31, 32, 33 ]
      -
         sv_count: 6
         rho: -1.3283224403858185e-01
         alpha: [ 1., 1., 1., -1., -1., -1. ]
         index: [ 28, 29, 30, 34, 35, 36 ]
      -
         sv_count: 5
         rho: -6.1744643747806549e-01
         alpha: [ 1., 5.1943815182106334e-01, 4.8056184817893671e-01,
             -1., -1. ]
         index: [ 28, 29, 30, 37, 38 ]
      -
         sv_count: 6
         rho: -2.4683450162410736e-01
         alpha: [ 1., 1., 1., -1., -1., -1. ]
         index: [ 28, 29, 30, 39, 40, 41 ]
      -
         sv_count: 5
         rho: -5.2560979659221507e-01
         alpha: [ 9.6510636456245780e-01, 6.1663560313697774e-01,
             4.1825803230056452e-01, -1., -1. ]
         index: [ 28, 29, 30, 42, 43 ]
      -
         sv_count: 6
         rho: -1.1499282717704773e-01
         alpha: [ 1., 1., 1., -1., -1., -1. ]
         index: [ 28, 29, 30, 44, 45, 46 ]
      -
         sv_count: 6
         rho: 5.7908654212951660e-02
         alpha: [ 1., 1., 1., -1., -1., -1. ]
         index: [ 31, 32, 33, 34, 35, 36 ]
      -
         sv_count: 5
         rho: -4.9075713753700245e-01
         alpha: [ 9.0344818684169403e-01, 1., 9.6551813158306021e-02,
             -1., -1. ]
         index: [ 31, 32, 33, 37, 38 ]
      -
         sv_count: 6
         rho: -9.8121843963905266e-04
         alpha: [ 6.1077395100924081e-01, 5.5331444935434637e-01, 1.,
             -1., -1.6408840036358696e-01, -1. ]
         index: [ 31, 32, 33, 39, 40, 41 ]
      -
         sv_count: 4
         rho: -1.5112207829952240e-01
         alpha: [ 1., 1., -1., -1. ]
         index: [ 31, 33, 42, 43 ]
      -
         sv_count: 6
         rho: 1.0437047481536865e-01
         alpha: [ 8.8511907648531252e-01, 1., 1.,
             -8.8511907648531252e-01, -1., -1. ]
         index: [ 31, 32, 33, 44, 45, 46 ]
      -
         sv_count: 5
         rho: -7.5577476620674133e-01
         alpha: [ 1., 6.1216221219849265e-01, 3.8783778780150729e-01,
             -1., -1. ]
         index: [ 34, 35, 36, 37, 38 ]
      -
         sv_count: 6
         rho: -3.1282454597940973e-01
         alpha: [ 9.2789692905647581e-01, 1., 9.5999322566963463e-01,
             -1., -1., -8.8789015472611044e-01 ]
         index: [ 34, 35, 36, 39, 40, 41 ]
      -
         sv_count: 5
         rho: -5.9669619484578984e-01
         alpha: [ 8.5932646165353799e-01, 7.3915717824580307e-01,
             4.0151636010065883e-01, -1., -1. ]
         index: [ 34, 35, 36, 42, 43 ]
      -
         sv_count: 6
         rho: -2.8575956821441650e-03
         alpha: [ 1., 1., 1., -1., -1., -1. ]
         index: [ 34, 35, 36, 44, 45, 46 ]
      -
         sv_count: 4
         rho: 3.7359142303466797e-01
         alpha: [ 1., 1., -1., -1. ]
         index: [ 37, 38, 39, 40 ]
      -
         sv_count: 4
         rho: -3.0766755342483521e-02
         alpha: [ 1., 1., -1., -1. ]
         index: [ 37, 38, 42, 43 ]
      -
         sv_count: 5
         rho: 6.7123293876647949e-01
         alpha: [ 1., 1., -1.9562991834229604e-01, -1.,
             -8.0437008165770396e-01 ]
         index: [ 37, 38, 44, 45, 46 ]
      -
         sv_count: 4
         rho: -3.5037896037101746e-01
         alpha: [ 1., 1., -1., -1. ]
         index: [ 39, 40, 42, 43 ]
      -
         sv_count: 6
         rho: 2.9465286433696747e-01
         alpha: [ 1., 1., 1., -1., -1., -1. ]
         index: [ 39, 40, 41, 44, 45, 46 ]
      -
         sv_count: 5
         rho: 4.6912799067224170e-01
         alpha: [ 1., 1., -3.4057668519431528e-01,
             -8.0849941616705423e-01, -8.5092389863863072e-01 ]
         index: [ 42, 43, 44, 45, 46 ]
